{"feature_names": ["kerb_weight", "seat1_knee_airbag", "row2_side_chest_airbag", "seat1_side_pelvis_airbag", "seat3_side_pelvis_airbag", "row2_side_pelvis_airbag", "seat1_centre_lateral_airbag", "seat3_centre_lateral_airbag", "seat3_isofix", "seat1_isize", "seat3_isize", "row2_isize", "row3_isize", "seat3_childdetection", "row2_childdetection", "has_active_bonnet", "has_distraction_detection", "has_fatigue_detection", "has_lane_assist", "has_speed_assist", "has_aeb_vru", "has_cyclistdoorprevention", "has_aeb_m2w", "has_aeb_cartocar", "protocol_version"], "class_names": ["high", "low", "medium"], "trees": [{"children_left": [1, 2, 3, 4, 5, 6, -1, 8, 9, 10, -1, -1, -1, -1, 15, 16, 17, 18, -1, -1, -1, -1, -1, -1, 25, 26, 27, -1, 29, -1, 31, 32, -1, 34, -1, -1, -1, 38, 39, 40, -1, 42, -1, 44, -1, -1, 47, -1, -1, 50, -1, -1, 53, 54, -1, -1, -1, 58, -1, 60, 61, -1, -1, -1, 65, 66, 67, 68, -1, -1, -1, 72, 73, -1, -1, 76, 77, 78, 79, -1, 81, -1, 83, -1, -1, -1, -1, -1, 89, 90, 91, 92, 93, -1, -1, 96, -1, -1, -1, 100, 101, 102, 103, -1, 105, -1, -1, -1, -1, -1, 111, 112, -1, 114, 115, -1, -1, 118, 119, -1, 121, 122, -1, -1, -1, 126, 127, -1, 129, -1, -1, -1, -1], "children_right": [64, 57, 24, 23, 14, 7, -1, 13, 12, 11, -1, -1, -1, -1, 22, 21, 20, 19, -1, -1, -1, -1, -1, -1, 52, 37, 28, -1, 30, -1, 36, 33, -1, 35, -1, -1, -1, 49, 46, 41, -1, 43, -1, 45, -1, -1, 48, -1, -1, 51, -1, -1, 56, 55, -1, -1, -1, 59, -1, 63, 62, -1, -1, -1, 88, 71, 70, 69, -1, -1, -1, 75, 74, -1, -1, 87, 86, 85, 80, -1, 82, -1, 84, -1, -1, -1, -1, -1, 110, 99, 98, 95, 94, -1, -1, 97, -1, -1, -1, 109, 108, 107, 104, -1, 106, -1, -1, -1, -1, -1, 132, 113, -1, 117, 116, -1, -1, 125, 120, -1, 124, 123, -1, -1, -1, 131, 128, -1, 130, -1, -1, -1, -1], "feature": [24, 6, 4, 0, 0, 18, -2, 20, 8, 0, -2, -2, -2, -2, 24, 12, 1, 0, -2, -2, -2, -2, -2, -2, 15, 18, 0, -2, 11, -2, 23, 19, -2, 0, -2, -2, -2, 16, 1, 0, -2, 0, -2, 0, -2, -2, 0, -2, -2, 1, -2, -2, 2, 11, -2, -2, -2, 3, -2, 1, 8, -2, -2, -2, 6, 22, 4, 0, -2, -2, -2, 3, 10, -2, -2, 2, 8, 21, 0, -2, 17, -2, 1, -2, -2, -2, -2, -2, 21, 0, 8, 4, 22, -2, -2, 13, -2, -2, -2, 15, 8, 7, 17, -2, 0, -2, -2, -2, -2, -2, 12, 11, -2, 14, 2, -2, -2, 0, 0, -2, 5, 8, -2, -2, -2, 15, 1, -2, 13, -2, -2, -2, -2], "threshold": [2.5, 0.5, 0.5, 1899.0, 1489.0, 0.5, -2.0, 0.5, 0.5, 1144.0, -2.0, -2.0, -2.0, -2.0, 1.5, 0.5, 0.5, 1542.5, -2.0, -2.0, -2.0, -2.0, -2.0, -2.0, 0.5, 0.5, 904.5, -2.0, 0.5, -2.0, 0.5, 0.5, -2.0, 1158.0, -2.0, -2.0, -2.0, 0.5, 0.5, 1202.0, -2.0, 1276.0, -2.0, 1399.0, -2.0, -2.0, 1688.0, -2.0, -2.0, 0.5, -2.0, -2.0, 0.5, 0.5, -2.0, -2.0, -2.0, 0.5, -2.0, 0.5, 0.5, -2.0, -2.0, -2.0, 0.5, 0.5, 0.5, 2086.5, -2.0, -2.0, -2.0, 0.5, 0.5, -2.0, -2.0, 0.5, 0.5, 0.5, 1012.0, -2.0, 0.5, -2.0, 0.5, -2.0, -2.0, -2.0, -2.0, -2.0, 0.5, 1705.5, 0.5, 0.5, 0.5, -2.0, -2.0, 0.5, -2.0, -2.0, -2.0, 0.5, 0.5, 0.5, 0.5, -2.0, 1766.5, -2.0, -2.0, -2.0, -2.0, -2.0, 0.5, 0.5, -2.0, 0.5, 0.5, -2.0, -2.0, 1817.5, 1471.0, -2.0, 0.5, 0.5, -2.0, -2.0, -2.0, 0.5, 0.5, -2.0, 0.5, -2.0, -2.0, -2.0, -2.0], "value": [[0.2970027247956403, 0.3405994550408719, 0.36239782016348776], [0.24378109452736318, 0.5422885572139303, 0.21393034825870647], [0.1837837837837838, 0.5891891891891892, 0.22702702702702704], [0.16071428571428573, 0.23214285714285715, 0.6071428571428571], [0.14285714285714285, 0.16326530612244897, 0.6938775510204082], [0.16666666666666666, 0.3333333333333333, 0.5], [0.0, 0.8, 0.2], [0.2857142857142857, 0.0, 0.7142857142857143], [0.4444444444444444, 0.0, 0.5555555555555556], [0.375, 0.0, 0.625], [0.0, 0.0, 1.0], [0.6, 0.0, 0.4], [1.0, 0.0, 0.0], [0.0, 0.0, 1.0], [0.12, 0.0, 0.88], [0.14285714285714285, 0.0, 0.8571428571428571], [0.16666666666666666, 0.0, 0.8333333333333334], [0.11764705882352941, 0.0, 0.8823529411764706], [0.0, 0.0, 1.0], [1.0, 0.0, 0.0], [1.0, 0.0, 0.0], [0.0, 0.0, 1.0], [0.0, 0.0, 1.0], [0.2857142857142857, 0.7142857142857143, 0.0], [0.1937984496124031, 0.7441860465116279, 0.06201550387596899], [0.14035087719298245, 0.7894736842105263, 0.07017543859649122], [0.029411764705882353, 0.9411764705882353, 0.029411764705882353], [0.0, 0.8823529411764706, 0.11764705882352941], [0.0392156862745098, 0.9607843137254902, 0.0], [0.0, 1.0, 0.0], [0.047619047619047616, 0.9523809523809523, 0.0], [0.08, 0.92, 0.0], [0.0, 1.0, 0.0], [0.13333333333333333, 0.8666666666666667, 0.0], [1.0, 0.0, 0.0], [0.0, 1.0, 0.0], [0.0, 1.0, 0.0], [0.30434782608695654, 0.5652173913043478, 0.13043478260869565], [0.3333333333333333, 0.5454545454545454, 0.12121212121212122], [0.2222222222222222, 0.6666666666666666, 0.1111111111111111], [0.07692307692307693, 0.9230769230769231, 0.0], [0.35714285714285715, 0.42857142857142855, 0.21428571428571427], [0.0, 0.0, 1.0], [0.45454545454545453, 0.5454545454545454, 0.0], [1.0, 0.0, 0.0], [0.25, 0.75, 0.0], [0.8333333333333334, 0.0, 0.16666666666666666], [1.0, 0.0, 0.0], [0.6666666666666666, 0.0, 0.3333333333333333], [0.23076923076923078, 0.6153846153846154, 0.15384615384615385], [0.16666666666666666, 0.6666666666666666, 0.16666666666666666], [1.0, 0.0, 0.0], [0.6, 0.4, 0.0], [0.5384615384615384, 0.46153846153846156, 0.0], [0.0, 1.0, 0.0], [1.0, 0.0, 0.0], [1.0, 0.0, 0.0], [0.9375, 0.0, 0.0625], [1.0, 0.0, 0.0], [0.9166666666666666, 0.0, 0.08333333333333333], [0.8333333333333334, 0.0, 0.16666666666666666], [0.6666666666666666, 0.0, 0.3333333333333333], [1.0, 0.0, 0.0], [1.0, 0.0, 0.0], [0.3614457831325301, 0.0963855421686747, 0.5421686746987951], [0.04838709677419355, 0.22580645161290322, 0.7258064516129032], [0.2, 0.0, 0.8], [0.07692307692307693, 0.0, 0.9230769230769231], [0.0, 0.0, 1.0], [1.0, 0.0, 0.0], [1.0, 0.0, 0.0], [0.0, 0.2978723404255319, 0.7021276595744681], [0.0, 0.3076923076923077, 0.6923076923076923], [0.0, 0.3333333333333333, 0.6666666666666666], [0.0, 0.0, 1.0], [0.0, 0.29411764705882354, 0.7058823529411765], [0.0, 0.2, 0.8], [0.0, 0.1724137931034483, 0.8275862068965517], [0.0, 0.19230769230769232, 0.8076923076923077], [0.0, 1.0, 0.0], [0.0, 0.08695652173913043, 0.9130434782608695], [0.0, 0.0, 1.0], [0.0, 0.09523809523809523, 0.9047619047619048], [0.0, 0.10526315789473684, 0.8947368421052632], [0.0, 0.0, 1.0], [0.0, 0.0, 1.0], [0.0, 1.0, 0.0], [0.0, 1.0, 0.0], [0.5480769230769231, 0.019230769230769232, 0.4326923076923077], [0.42, 0.04, 0.54], [0.21428571428571427, 0.0, 0.7857142857142857], [0.13043478260869565, 0.0, 0.8695652173913043], [0.08333333333333333, 0.0, 0.9166666666666666], [0.5, 0.0, 0.5], [0.0, 0.0, 1.0], [0.18181818181818182, 0.0, 0.8181818181818182], [0.3333333333333333, 0.0, 0.6666666666666666], [0.0, 0.0, 1.0], [0.6, 0.0, 0.4], [0.6818181818181818, 0.09090909090909091, 0.22727272727272727], [0.75, 0.1, 0.15], [0.6153846153846154, 0.15384615384615385, 0.23076923076923078], [0.5454545454545454, 0.18181818181818182, 0.2727272727272727], [1.0, 0.0, 0.0], [0.2857142857142857, 0.2857142857142857, 0.42857142857142855], [1.0, 0.0, 0.0], [0.0, 0.4, 0.6], [1.0, 0.0, 0.0], [1.0, 0.0, 0.0], [0.0, 0.0, 1.0], [0.6666666666666666, 0.0, 0.3333333333333333], [0.6792452830188679, 0.0, 0.32075471698113206], [1.0, 0.0, 0.0], [0.6730769230769231, 0.0, 0.3269230769230769], [0.6, 0.0, 0.4], [1.0, 0.0, 0.0], [0.2, 0.0, 0.8], [0.6904761904761905, 0.0, 0.30952380952380953], [0.42857142857142855, 0.0, 0.5714285714285714], [1.0, 0.0, 0.0], [0.25, 0.0, 0.75], [0.14285714285714285, 0.0, 0.8571428571428571], [0.07692307692307693, 0.0, 0.9230769230769231], [1.0, 0.0, 0.0], [1.0, 0.0, 0.0], [0.9523809523809523, 0.0, 0.047619047619047616], [0.9230769230769231, 0.0, 0.07692307692307693], [1.0, 0.0, 0.0], [0.8571428571428571, 0.0, 0.14285714285714285], [0.5, 0.0, 0.5], [1.0, 0.0, 0.0], [1.0, 0.0, 0.0], [0.0, 0.0, 1.0]]}, {"children_left": [1, 2, -1, 4, -1, 6, 7, 8, -1, -1, -1, -1, 13, 14, 15, 16, -1, -1, -1, -1, 21, 22, 23, 24, 25, 26, 27, 28, -1, -1, 31, -1, -1, -1, -1, 36, -1, 38, 39, -1, -1, -1, 43, 44, 45, -1, -1, 48, 49, -1, 51, -1, -1, 54, -1, -1, 57, 58, -1, 60, -1, 62, -1, -1, -1, 66, 67, 68, 69, 70, -1, -1, 73, 74, -1, -1, -1, -1, -1, 80, 81, 82, 83, 84, -1, -1, -1, -1, -1, 90, 91, -1, -1, -1, 95, 96, -1, -1, -1], "children_right": [12, 3, -1, 5, -1, 11, 10, 9, -1, -1, -1, -1, 20, 19, 18, 17, -1, -1, -1, -1, 94, 65, 42, 35, 34, 33, 30, 29, -1, -1, 32, -1, -1, -1, -1, 37, -1, 41, 40, -1, -1, -1, 56, 47, 46, -1, -1, 53, 50, -1, 52, -1, -1, 55, -1, -1, 64, 59, -1, 61, -1, 63, -1, -1, -1, 79, 78, 77, 72, 71, -1, -1, 76, 75, -1, -1, -1, -1, -1, 89, 88, 87, 86, 85, -1, -1, -1, -1, -1, 93, 92, -1, -1, -1, 98, 97, -1, -1, -1], "feature": [19, 4, -2, 11, -2, 1, 0, 0, -2, -2, -2, -2, 18, 15, 23, 0, -2, -2, -2, -2, 13, 17, 3, 7, 0, 6, 23, 12, -2, -2, 15, -2, -2, -2, -2, 11, -2, 12, 15, -2, -2, -2, 7, 0, 20, -2, -2, 20, 0, -2, 8, -2, -2, 24, -2, -2, 1, 16, -2, 11, -2, 24, -2, -2, -2, 6, 2, 0, 4, 10, -2, -2, 0, 0, -2, -2, -2, -2, -2, 10, 5, 7, 12, 0, -2, -2, -2, -2, -2, 14, 5, -2, -2, -2, 1, 0, -2, -2, -2], "threshold": [0.5, 0.5, -2.0, 0.5, -2.0, 0.5, 975.0, 904.5, -2.0, -2.0, -2.0, -2.0, 0.5, 0.5, 0.5, 1158.0, -2.0, -2.0, -2.0, -2.0, 0.5, 0.5, 0.5, 0.5, 2086.5, 0.5, 0.5, 0.5, -2.0, -2.0, 0.5, -2.0, -2.0, -2.0, -2.0, 0.5, -2.0, 0.5, 0.5, -2.0, -2.0, -2.0, 0.5, 1188.0, 0.5, -2.0, -2.0, 0.5, 1276.0, -2.0, 0.5, -2.0, -2.0, 2.5, -2.0, -2.0, 0.5, 0.5, -2.0, 0.5, -2.0, 2.5, -2.0, -2.0, -2.0, 0.5, 0.5, 1675.5, 0.5, 0.5, -2.0, -2.0, 1500.5, 1324.0, -2.0, -2.0, -2.0, -2.0, -2.0, 0.5, 0.5, 0.5, 0.5, 1525.0, -2.0, -2.0, -2.0, -2.0, -2.0, 0.5, 0.5, -2.0, -2.0, -2.0, 0.5, 1609.0, -2.0, -2.0, -2.0], "value": [[0.3188010899182561, 0.31607629427792916, 0.3651226158038147], [0.023809523809523808, 0.7619047619047619, 0.21428571428571427], [0.0, 1.0, 0.0], [0.02631578947368421, 0.7368421052631579, 0.23684210526315788], [0.0, 1.0, 0.0], [0.037037037037037035, 0.6296296296296297, 0.3333333333333333], [0.0, 0.6538461538461539, 0.34615384615384615], [0.0, 0.5909090909090909, 0.4090909090909091], [0.0, 0.75, 0.25], [0.0, 0.16666666666666666, 0.8333333333333334], [0.0, 1.0, 0.0], [1.0, 0.0, 0.0], [0.3569230769230769, 0.25846153846153846, 0.38461538461538464], [0.05128205128205128, 0.9487179487179487, 0.0], [0.02631578947368421, 0.9736842105263158, 0.0], [0.043478260869565216, 0.9565217391304348, 0.0], [0.14285714285714285, 0.8571428571428571, 0.0], [0.0, 1.0, 0.0], [0.0, 1.0, 0.0], [1.0, 0.0, 0.0], [0.3986013986013986, 0.16433566433566432, 0.4370629370629371], [0.3643122676579926, 0.17472118959107807, 0.46096654275092935], [0.4866666666666667, 0.13333333333333333, 0.38], [0.296875, 0.0, 0.703125], [0.2037037037037037, 0.0, 0.7962962962962963], [0.12244897959183673, 0.0, 0.8775510204081632], [0.10416666666666667, 0.0, 0.8958333333333334], [0.16, 0.0, 0.84], [0.2222222222222222, 0.0, 0.7777777777777778], [0.0, 0.0, 1.0], [0.043478260869565216, 0.0, 0.9565217391304348], [0.05555555555555555, 0.0, 0.9444444444444444], [0.0, 0.0, 1.0], [1.0, 0.0, 0.0], [1.0, 0.0, 0.0], [0.8, 0.0, 0.2], [1.0, 0.0, 0.0], [0.7777777777777778, 0.0, 0.2222222222222222], [0.75, 0.0, 0.25], [1.0, 0.0, 0.0], [0.5, 0.0, 0.5], [1.0, 0.0, 0.0], [0.627906976744186, 0.23255813953488372, 0.13953488372093023], [0.5606060606060606, 0.30303030303030304, 0.13636363636363635], [0.1, 0.9, 0.0], [0.07692307692307693, 0.9230769230769231, 0.0], [0.14285714285714285, 0.8571428571428571, 0.0], [0.7608695652173914, 0.043478260869565216, 0.1956521739130435], [0.8648648648648649, 0.05405405405405406, 0.08108108108108109], [0.5, 0.0, 0.5], [0.8857142857142857, 0.05714285714285714, 0.05714285714285714], [0.8787878787878788, 0.06060606060606061, 0.06060606060606061], [1.0, 0.0, 0.0], [0.3333333333333333, 0.0, 0.6666666666666666], [0.0, 0.0, 1.0], [0.6, 0.0, 0.4], [0.85, 0.0, 0.15], [0.7857142857142857, 0.0, 0.21428571428571427], [0.0, 0.0, 1.0], [0.9166666666666666, 0.0, 0.08333333333333333], [1.0, 0.0, 0.0], [0.9090909090909091, 0.0, 0.09090909090909091], [0.8, 0.0, 0.2], [1.0, 0.0, 0.0], [1.0, 0.0, 0.0], [0.21008403361344538, 0.226890756302521, 0.5630252100840336], [0.0, 0.5102040816326531, 0.4897959183673469], [0.0, 0.45454545454545453, 0.5454545454545454], [0.0, 0.5882352941176471, 0.4117647058823529], [0.0, 0.3, 0.7], [0.0, 0.375, 0.625], [0.0, 0.0, 1.0], [0.0, 0.7083333333333334, 0.2916666666666667], [0.0, 0.6111111111111112, 0.3888888888888889], [0.0, 0.8461538461538461, 0.15384615384615385], [0.0, 0.0, 1.0], [0.0, 1.0, 0.0], [0.0, 0.0, 1.0], [0.0, 1.0, 0.0], [0.35714285714285715, 0.02857142857142857, 0.6142857142857143], [0.2542372881355932, 0.03389830508474576, 0.711864406779661], [0.22807017543859648, 0.03508771929824561, 0.7368421052631579], [0.2708333333333333, 0.041666666666666664, 0.6875], [0.35135135135135137, 0.0, 0.6486486486486487], [0.07692307692307693, 0.0, 0.9230769230769231], [0.5, 0.0, 0.5], [0.0, 0.18181818181818182, 0.8181818181818182], [0.0, 0.0, 1.0], [1.0, 0.0, 0.0], [0.9090909090909091, 0.0, 0.09090909090909091], [0.8333333333333334, 0.0, 0.16666666666666666], [1.0, 0.0, 0.0], [0.5, 0.0, 0.5], [1.0, 0.0, 0.0], [0.9411764705882353, 0.0, 0.058823529411764705], [0.9166666666666666, 0.0, 0.08333333333333333], [0.0, 0.0, 1.0], [1.0, 0.0, 0.0], [1.0, 0.0, 0.0]]}, {"children_left": [1, 2, 3, 4, -1, -1, 7, 8, 9, 10, 11, -1, -1, -1, -1, -1, -1, 18, 19, 20, 21, -1, 23, 24, 25, 26, -1, -1, -1, -1, -1, -1, -1, 34, 35, -1, 37, 38, 39, -1, 41, -1, 43, -1, -1, -1, -1, 48, -1, -1, 51, 52, 53, 54, 55, 56, -1, 58, -1, -1, 61, 62, -1, -1, 65, -1, 67, -1, -1, -1, -1, 72, -1, 74, -1, 76, -1, 78, -1, -1, 81, 82, 83, 84, -1, -1, -1, -1, 89, 90, 91, 92, -1, 94, 95, -1, -1, -1, 99, 100, -1, 102, -1, -1, 105, 106, 107, -1, -1, -1, 111, -1, -1, -1, 115, -1, -1], "children_right": [50, 17, 6, 5, -1, -1, 16, 15, 14, 13, 12, -1, -1, -1, -1, -1, -1, 33, 32, 31, 22, -1, 30, 29, 28, 27, -1, -1, -1, -1, -1, -1, -1, 47, 36, -1, 46, 45, 40, -1, 42, -1, 44, -1, -1, -1, -1, 49, -1, -1, 80, 71, 70, 69, 60, 57, -1, 59, -1, -1, 64, 63, -1, -1, 66, -1, 68, -1, -1, -1, -1, 73, -1, 75, -1, 77, -1, 79, -1, -1, 88, 87, 86, 85, -1, -1, -1, -1, 114, 113, 98, 93, -1, 97, 96, -1, -1, -1, 104, 101, -1, 103, -1, -1, 110, 109, 108, -1, -1, -1, 112, -1, -1, -1, 116, -1, -1], "feature": [20, 4, 18, 0, -2, -2, 12, 10, 15, 0, 0, -2, -2, -2, -2, -2, -2, 18, 16, 15, 11, -2, 24, 0, 1, 0, -2, -2, -2, -2, -2, -2, -2, 15, 19, -2, 1, 8, 0, -2, 0, -2, 0, -2, -2, -2, -2, 11, -2, -2, 0, 6, 21, 14, 4, 17, -2, 0, -2, -2, 24, 10, -2, -2, 0, -2, 0, -2, -2, -2, -2, 22, -2, 3, -2, 14, -2, 0, -2, -2, 6, 17, 15, 22, -2, -2, -2, -2, 12, 13, 24, 4, -2, 10, 0, -2, -2, -2, 4, 0, -2, 14, -2, -2, 8, 2, 17, -2, -2, -2, 22, -2, -2, -2, 4, -2, -2], "threshold": [0.5, 0.5, 0.5, 1078.0, -2.0, -2.0, 0.5, 0.5, 0.5, 1401.0, 1099.0, -2.0, -2.0, -2.0, -2.0, -2.0, -2.0, 0.5, 0.5, 0.5, 0.5, -2.0, 1.5, 975.0, 0.5, 877.0, -2.0, -2.0, -2.0, -2.0, -2.0, -2.0, -2.0, 0.5, 0.5, -2.0, 0.5, 0.5, 1116.5, -2.0, 1163.5, -2.0, 1202.0, -2.0, -2.0, -2.0, -2.0, 0.5, -2.0, -2.0, 1566.0, 0.5, 0.5, 0.5, 0.5, 0.5, -2.0, 1469.0, -2.0, -2.0, 2.5, 0.5, -2.0, -2.0, 1012.0, -2.0, 1500.5, -2.0, -2.0, -2.0, -2.0, 0.5, -2.0, 0.5, -2.0, 0.5, -2.0, 1497.5, -2.0, -2.0, 0.5, 0.5, 0.5, 0.5, -2.0, -2.0, -2.0, -2.0, 0.5, 0.5, 2.5, 0.5, -2.0, 0.5, 1841.0, -2.0, -2.0, -2.0, 0.5, 1736.5, -2.0, 0.5, -2.0, -2.0, 0.5, 0.5, 0.5, -2.0, -2.0, -2.0, 0.5, -2.0, -2.0, -2.0, 0.5, -2.0, -2.0], "value": [[0.29155313351498635, 0.3215258855585831, 0.3869209809264305], [0.19753086419753085, 0.5802469135802469, 0.2222222222222222], [0.17777777777777778, 0.35555555555555557, 0.4666666666666667], [0.05263157894736842, 0.8421052631578947, 0.10526315789473684], [0.0, 0.7142857142857143, 0.2857142857142857], [0.08333333333333333, 0.9166666666666666, 0.0], [0.2692307692307692, 0.0, 0.7307692307692307], [0.3181818181818182, 0.0, 0.6818181818181818], [0.2, 0.0, 0.8], [0.14285714285714285, 0.0, 0.8571428571428571], [0.2222222222222222, 0.0, 0.7777777777777778], [0.0, 0.0, 1.0], [0.3333333333333333, 0.0, 0.6666666666666666], [0.0, 0.0, 1.0], [1.0, 0.0, 0.0], [0.5714285714285714, 0.0, 0.42857142857142855], [0.0, 0.0, 1.0], [0.20512820512820512, 0.6666666666666666, 0.1282051282051282], [0.0, 0.8970588235294118, 0.10294117647058823], [0.0, 0.8888888888888888, 0.1111111111111111], [0.0, 0.8870967741935484, 0.11290322580645161], [0.0, 1.0, 0.0], [0.0, 0.8771929824561403, 0.12280701754385964], [0.0, 0.8541666666666666, 0.14583333333333334], [0.0, 0.7407407407407407, 0.25925925925925924], [0.0, 0.6956521739130435, 0.30434782608695654], [0.0, 0.5714285714285714, 0.42857142857142855], [0.0, 0.75, 0.25], [0.0, 1.0, 0.0], [0.0, 1.0, 0.0], [0.0, 1.0, 0.0], [0.0, 1.0, 0.0], [0.0, 1.0, 0.0], [0.4897959183673469, 0.3469387755102041, 0.16326530612244897], [0.34285714285714286, 0.42857142857142855, 0.22857142857142856], [1.0, 0.0, 0.0], [0.30303030303030304, 0.45454545454545453, 0.24242424242424243], [0.32, 0.6, 0.08], [0.2916666666666667, 0.625, 0.08333333333333333], [0.0, 1.0, 0.0], [0.3888888888888889, 0.5, 0.1111111111111111], [1.0, 0.0, 0.0], [0.21428571428571427, 0.6428571428571429, 0.14285714285714285], [0.0, 1.0, 0.0], [0.3333333333333333, 0.4444444444444444, 0.2222222222222222], [1.0, 0.0, 0.0], [0.25, 0.0, 0.75], [0.8571428571428571, 0.14285714285714285, 0.0], [0.0, 1.0, 0.0], [1.0, 0.0, 0.0], [0.36585365853658536, 0.11707317073170732, 0.5170731707317073], [0.1348314606741573, 0.1797752808988764, 0.6853932584269663], [0.03278688524590164, 0.26229508196721313, 0.7049180327868853], [0.034482758620689655, 0.27586206896551724, 0.6896551724137931], [0.03571428571428571, 0.25, 0.7142857142857143], [0.0, 0.12903225806451613, 0.8709677419354839], [0.0, 0.0, 1.0], [0.0, 0.36363636363636365, 0.6363636363636364], [0.0, 0.0, 1.0], [0.0, 1.0, 0.0], [0.08, 0.4, 0.52], [0.2, 0.5, 0.3], [0.1111111111111111, 0.5555555555555556, 0.3333333333333333], [1.0, 0.0, 0.0], [0.0, 0.3333333333333333, 0.6666666666666666], [0.0, 1.0, 0.0], [0.0, 0.16666666666666666, 0.8333333333333334], [0.0, 0.09090909090909091, 0.9090909090909091], [0.0, 1.0, 0.0], [0.0, 1.0, 0.0], [0.0, 0.0, 1.0], [0.35714285714285715, 0.0, 0.6428571428571429], [1.0, 0.0, 0.0], [0.18181818181818182, 0.0, 0.8181818181818182], [0.5, 0.0, 0.5], [0.1111111111111111, 0.0, 0.8888888888888888], [0.0, 0.0, 1.0], [0.25, 0.0, 0.75], [0.14285714285714285, 0.0, 0.8571428571428571], [1.0, 0.0, 0.0], [0.5431034482758621, 0.06896551724137931, 0.3879310344827586], [0.2, 0.0, 0.8], [0.4444444444444444, 0.0, 0.5555555555555556], [0.6666666666666666, 0.0, 0.3333333333333333], [1.0, 0.0, 0.0], [0.0, 0.0, 1.0], [0.0, 0.0, 1.0], [0.0, 0.0, 1.0], [0.6145833333333334, 0.08333333333333333, 0.3020833333333333], [0.691358024691358, 0.0, 0.30864197530864196], [0.6428571428571429, 0.0, 0.35714285714285715], [0.8, 0.0, 0.2], [1.0, 0.0, 0.0], [0.7, 0.0, 0.3], [0.625, 0.0, 0.375], [0.0, 0.0, 1.0], [1.0, 0.0, 0.0], [1.0, 0.0, 0.0], [0.6, 0.0, 0.4], [0.42857142857142855, 0.0, 0.5714285714285714], [0.0, 0.0, 1.0], [0.6666666666666666, 0.0, 0.3333333333333333], [1.0, 0.0, 0.0], [0.4, 0.0, 0.6], [0.6585365853658537, 0.0, 0.34146341463414637], [0.76, 0.0, 0.24], [0.75, 0.0, 0.25], [1.0, 0.0, 0.0], [0.5714285714285714, 0.0, 0.42857142857142855], [1.0, 0.0, 0.0], [0.5, 0.0, 0.5], [0.2, 0.0, 0.8], [1.0, 0.0, 0.0], [1.0, 0.0, 0.0], [0.2, 0.5333333333333333, 0.26666666666666666], [0.5, 0.0, 0.5], [0.09090909090909091, 0.7272727272727273, 0.18181818181818182]]}, {"children_left": [1, 2, 3, 4, -1, 6, 7, 8, 9, -1, 11, -1, -1, -1, -1, -1, -1, 18, 19, -1, 21, 22, 23, -1, -1, -1, -1, -1, 29, 30, 31, 32, 33, 34, -1, -1, 37, 38, 39, -1, -1, -1, -1, 44, -1, 46, -1, 48, 49, 50, -1, -1, -1, -1, 55, -1, -1, 58, 59, 60, 61, 62, -1, -1, 65, -1, 67, -1, -1, 70, 71, 72, 73, -1, -1, -1, -1, -1, 79, -1, 81, -1, 83, -1, -1, 86, -1, 88, 89, 90, -1, -1, -1, -1, 95, 96, 97, 98, -1, 100, 101, -1, -1, 104, -1, -1, -1, 108, 109, 110, 111, -1, 113, -1, -1, -1, 117, -1, 119, -1, -1, -1, -1], "children_right": [28, 17, 16, 5, -1, 15, 14, 13, 10, -1, 12, -1, -1, -1, -1, -1, -1, 27, 20, -1, 26, 25, 24, -1, -1, -1, -1, -1, 94, 57, 54, 43, 36, 35, -1, -1, 42, 41, 40, -1, -1, -1, -1, 45, -1, 47, -1, 53, 52, 51, -1, -1, -1, -1, 56, -1, -1, 85, 78, 69, 64, 63, -1, -1, 66, -1, 68, -1, -1, 77, 76, 75, 74, -1, -1, -1, -1, -1, 80, -1, 82, -1, 84, -1, -1, 87, -1, 93, 92, 91, -1, -1, -1, -1, 122, 107, 106, 99, -1, 103, 102, -1, -1, 105, -1, -1, -1, 121, 116, 115, 112, -1, 114, -1, -1, -1, 118, -1, 120, -1, -1, -1, -1], "feature": [0, 18, 10, 4, -2, 24, 1, 19, 0, -2, 0, -2, -2, -2, -2, -2, -2, 17, 3, -2, 0, 23, 0, -2, -2, -2, -2, -2, 0, 20, 10, 3, 0, 19, -2, -2, 15, 12, 0, -2, -2, -2, -2, 11, -2, 0, -2, 5, 15, 18, -2, -2, -2, -2, 1, -2, -2, 14, 10, 7, 0, 24, -2, -2, 22, -2, 0, -2, -2, 2, 22, 1, 24, -2, -2, -2, -2, -2, 6, -2, 0, -2, 2, -2, -2, 6, -2, 15, 8, 2, -2, -2, -2, -2, 13, 17, 22, 18, -2, 24, 1, -2, -2, 6, -2, -2, -2, 7, 21, 14, 4, -2, 12, -2, -2, -2, 6, -2, 2, -2, -2, -2, -2], "threshold": [1210.0, 0.5, 0.5, 0.5, -2.0, 1.5, 0.5, 0.5, 877.0, -2.0, 975.0, -2.0, -2.0, -2.0, -2.0, -2.0, -2.0, 0.5, 0.5, -2.0, 1169.5, 0.5, 1163.5, -2.0, -2.0, -2.0, -2.0, -2.0, 1842.0, 0.5, 0.5, 0.5, 1496.5, 0.5, -2.0, -2.0, 0.5, 0.5, 1542.5, -2.0, -2.0, -2.0, -2.0, 0.5, -2.0, 1482.0, -2.0, 0.5, 0.5, 0.5, -2.0, -2.0, -2.0, -2.0, 0.5, -2.0, -2.0, 0.5, 0.5, 0.5, 1481.0, 2.5, -2.0, -2.0, 0.5, -2.0, 1671.0, -2.0, -2.0, 0.5, 0.5, 0.5, 2.5, -2.0, -2.0, -2.0, -2.0, -2.0, 0.5, -2.0, 1531.0, -2.0, 0.5, -2.0, -2.0, 0.5, -2.0, 0.5, 0.5, 0.5, -2.0, -2.0, -2.0, -2.0, 0.5, 0.5, 0.5, 0.5, -2.0, 1.5, 0.5, -2.0, -2.0, 0.5, -2.0, -2.0, -2.0, 0.5, 0.5, 0.5, 0.5, -2.0, 0.5, -2.0, -2.0, -2.0, 0.5, -2.0, 0.5, -2.0, -2.0, -2.0, -2.0], "value": [[0.3569482288828338, 0.31607629427792916, 0.32697547683923706], [0.09090909090909091, 0.7922077922077922, 0.11688311688311688], [0.0, 0.9148936170212766, 0.0851063829787234], [0.0, 0.9347826086956522, 0.06521739130434782], [0.0, 1.0, 0.0], [0.0, 0.9230769230769231, 0.07692307692307693], [0.0, 0.88, 0.12], [0.0, 0.8571428571428571, 0.14285714285714285], [0.0, 0.8333333333333334, 0.16666666666666666], [0.0, 0.75, 0.25], [0.0, 0.8571428571428571, 0.14285714285714285], [0.0, 0.8461538461538461, 0.15384615384615385], [0.0, 1.0, 0.0], [0.0, 1.0, 0.0], [0.0, 1.0, 0.0], [0.0, 1.0, 0.0], [0.0, 0.0, 1.0], [0.23333333333333334, 0.6, 0.16666666666666666], [0.2916666666666667, 0.625, 0.08333333333333333], [0.5, 0.0, 0.5], [0.25, 0.75, 0.0], [0.21052631578947367, 0.7894736842105263, 0.0], [0.1875, 0.8125, 0.0], [0.42857142857142855, 0.5714285714285714, 0.0], [0.0, 1.0, 0.0], [0.3333333333333333, 0.6666666666666666, 0.0], [1.0, 0.0, 0.0], [0.0, 0.5, 0.5], [0.42758620689655175, 0.1896551724137931, 0.38275862068965516], [0.32460732984293195, 0.225130890052356, 0.450261780104712], [0.4189189189189189, 0.35135135135135137, 0.22972972972972974], [0.38461538461538464, 0.4, 0.2153846153846154], [0.20833333333333334, 0.20833333333333334, 0.5833333333333334], [0.16666666666666666, 0.4166666666666667, 0.4166666666666667], [0.0, 1.0, 0.0], [0.2857142857142857, 0.0, 0.7142857142857143], [0.25, 0.0, 0.75], [0.18181818181818182, 0.0, 0.8181818181818182], [0.2222222222222222, 0.0, 0.7777777777777778], [0.0, 0.0, 1.0], [1.0, 0.0, 0.0], [0.0, 0.0, 1.0], [1.0, 0.0, 0.0], [0.4878048780487805, 0.5121951219512195, 0.0], [0.0, 1.0, 0.0], [0.7142857142857143, 0.2857142857142857, 0.0], [1.0, 0.0, 0.0], [0.5294117647058824, 0.47058823529411764, 0.0], [0.5, 0.5, 0.0], [0.2727272727272727, 0.7272727272727273, 0.0], [0.16666666666666666, 0.8333333333333334, 0.0], [0.4, 0.6, 0.0], [1.0, 0.0, 0.0], [1.0, 0.0, 0.0], [0.6666666666666666, 0.0, 0.3333333333333333], [0.625, 0.0, 0.375], [1.0, 0.0, 0.0], [0.26495726495726496, 0.1452991452991453, 0.5897435897435898], [0.1978021978021978, 0.14285714285714285, 0.6593406593406593], [0.1643835616438356, 0.1095890410958904, 0.726027397260274], [0.0392156862745098, 0.1568627450980392, 0.803921568627451], [0.058823529411764705, 0.0, 0.9411764705882353], [0.2222222222222222, 0.0, 0.7777777777777778], [0.0, 0.0, 1.0], [0.0, 0.47058823529411764, 0.5294117647058824], [0.0, 0.0, 1.0], [0.0, 0.6666666666666666, 0.3333333333333333], [0.0, 1.0, 0.0], [0.0, 0.0, 1.0], [0.45454545454545453, 0.0, 0.5454545454545454], [0.4, 0.0, 0.6], [0.5714285714285714, 0.0, 0.42857142857142855], [0.5, 0.0, 0.5], [0.42857142857142855, 0.0, 0.5714285714285714], [0.6, 0.0, 0.4], [1.0, 0.0, 0.0], [0.0, 0.0, 1.0], [1.0, 0.0, 0.0], [0.3333333333333333, 0.2777777777777778, 0.3888888888888889], [0.0, 0.625, 0.375], [0.6, 0.0, 0.4], [1.0, 0.0, 0.0], [0.42857142857142855, 0.0, 0.5714285714285714], [0.75, 0.0, 0.25], [0.0, 0.0, 1.0], [0.5, 0.15384615384615385, 0.34615384615384615], [0.0, 1.0, 0.0], [0.5909090909090909, 0.0, 0.4090909090909091], [0.5714285714285714, 0.0, 0.42857142857142855], [0.25, 0.0, 0.75], [0.125, 0.0, 0.875], [0.5, 0.0, 0.5], [1.0, 0.0, 0.0], [1.0, 0.0, 0.0], [0.6262626262626263, 0.12121212121212122, 0.25252525252525254], [0.5595238095238095, 0.14285714285714285, 0.2976190476190476], [0.6666666666666666, 0.09090909090909091, 0.24242424242424243], [0.7096774193548387, 0.0967741935483871, 0.1935483870967742], [0.25, 0.75, 0.0], [0.7777777777777778, 0.0, 0.2222222222222222], [0.625, 0.0, 0.375], [1.0, 0.0, 0.0], [0.5, 0.0, 0.5], [0.8421052631578947, 0.0, 0.15789473684210525], [0.5714285714285714, 0.0, 0.42857142857142855], [1.0, 0.0, 0.0], [0.0, 0.0, 1.0], [0.49019607843137253, 0.17647058823529413, 0.3333333333333333], [0.5, 0.18, 0.32], [0.2222222222222222, 0.3333333333333333, 0.4444444444444444], [0.08695652173913043, 0.391304347826087, 0.5217391304347826], [1.0, 0.0, 0.0], [0.0, 0.42857142857142855, 0.5714285714285714], [0.0, 0.0, 1.0], [0.0, 0.6428571428571429, 0.35714285714285715], [1.0, 0.0, 0.0], [0.8260869565217391, 0.0, 0.17391304347826086], [0.0, 0.0, 1.0], [0.9047619047619048, 0.0, 0.09523809523809523], [1.0, 0.0, 0.0], [0.3333333333333333, 0.0, 0.6666666666666666], [0.0, 0.0, 1.0], [1.0, 0.0, 0.0]]}, {"children_left": [1, 2, 3, 4, -1, 6, -1, -1, 9, 10, 11, -1, -1, -1, 15, 16, -1, -1, -1, 20, 21, 22, 23, -1, 25, 26, 27, -1, -1, -1, -1, 32, 33, 34, -1, -1, -1, -1, 39, 40, 41, -1, 43, -1, -1, 46, -1, -1, 49, 50, -1, -1, -1, -1, 55, 56, -1, 58, 59, 60, 61, -1, -1, 64, -1, 66, -1, -1, 69, 70, 71, 72, 73, -1, -1, 76, -1, -1, 79, 80, -1, -1, 83, -1, -1, -1, -1, 88, -1, 90, 91, 92, 93, -1, -1, -1, -1, 98, 99, 100, -1, -1, 103, 104, -1, -1, -1, -1, 109, 110, -1, -1, -1], "children_right": [54, 19, 8, 5, -1, 7, -1, -1, 14, 13, 12, -1, -1, -1, 18, 17, -1, -1, -1, 53, 38, 31, 24, -1, 30, 29, 28, -1, -1, -1, -1, 37, 36, 35, -1, -1, -1, -1, 48, 45, 42, -1, 44, -1, -1, 47, -1, -1, 52, 51, -1, -1, -1, -1, 108, 57, -1, 87, 68, 63, 62, -1, -1, 65, -1, 67, -1, -1, 86, 85, 78, 75, 74, -1, -1, 77, -1, -1, 82, 81, -1, -1, 84, -1, -1, -1, -1, 89, -1, 97, 96, 95, 94, -1, -1, -1, -1, 107, 102, 101, -1, -1, 106, 105, -1, -1, -1, -1, 112, 111, -1, -1, -1], "feature": [20, 3, 18, 11, -2, 15, -2, -2, 0, 10, 15, -2, -2, -2, 12, 0, -2, -2, -2, 2, 18, 19, 11, -2, 0, 0, 0, -2, -2, -2, -2, 16, 1, 23, -2, -2, -2, -2, 15, 0, 0, -2, 19, -2, -2, 0, -2, -2, 10, 19, -2, -2, -2, -2, 5, 0, -2, 21, 24, 4, 6, -2, -2, 0, -2, 7, -2, -2, 15, 2, 22, 8, 3, -2, -2, 16, -2, -2, 0, 10, -2, -2, 12, -2, -2, -2, -2, 17, -2, 14, 10, 2, 6, -2, -2, -2, -2, 2, 3, 0, -2, -2, 0, 1, -2, -2, -2, -2, 15, 13, -2, -2, -2], "threshold": [0.5, 0.5, 0.5, 0.5, -2.0, 0.5, -2.0, -2.0, 1464.5, 0.5, 0.5, -2.0, -2.0, -2.0, 0.5, 1527.5, -2.0, -2.0, -2.0, 0.5, 0.5, 0.5, 0.5, -2.0, 1055.0, 975.0, 904.5, -2.0, -2.0, -2.0, -2.0, 0.5, 0.5, 0.5, -2.0, -2.0, -2.0, -2.0, 0.5, 1487.5, 1202.0, -2.0, 0.5, -2.0, -2.0, 1818.0, -2.0, -2.0, 0.5, 0.5, -2.0, -2.0, -2.0, -2.0, 0.5, 1041.5, -2.0, 0.5, 2.5, 0.5, 0.5, -2.0, -2.0, 1250.0, -2.0, 0.5, -2.0, -2.0, 0.5, 0.5, 0.5, 0.5, 0.5, -2.0, -2.0, 0.5, -2.0, -2.0, 1582.0, 0.5, -2.0, -2.0, 0.5, -2.0, -2.0, -2.0, -2.0, 0.5, -2.0, 0.5, 0.5, 0.5, 0.5, -2.0, -2.0, -2.0, -2.0, 0.5, 0.5, 2041.0, -2.0, -2.0, 1793.5, 0.5, -2.0, -2.0, -2.0, -2.0, 0.5, 0.5, -2.0, -2.0, -2.0], "value": [[0.3188010899182561, 0.34877384196185285, 0.33242506811989103], [0.25903614457831325, 0.5843373493975904, 0.1566265060240964], [0.3191489361702128, 0.3404255319148936, 0.3404255319148936], [0.2727272727272727, 0.7272727272727273, 0.0], [0.0, 1.0, 0.0], [0.375, 0.625, 0.0], [0.2857142857142857, 0.7142857142857143, 0.0], [1.0, 0.0, 0.0], [0.36, 0.0, 0.64], [0.625, 0.0, 0.375], [0.4, 0.0, 0.6], [0.25, 0.0, 0.75], [1.0, 0.0, 0.0], [1.0, 0.0, 0.0], [0.23529411764705882, 0.0, 0.7647058823529411], [0.3076923076923077, 0.0, 0.6923076923076923], [0.0, 0.0, 1.0], [1.0, 0.0, 0.0], [0.0, 0.0, 1.0], [0.23529411764705882, 0.680672268907563, 0.08403361344537816], [0.21551724137931033, 0.6982758620689655, 0.08620689655172414], [0.057971014492753624, 0.855072463768116, 0.08695652173913043], [0.034482758620689655, 0.7586206896551724, 0.20689655172413793], [0.0, 1.0, 0.0], [0.058823529411764705, 0.5882352941176471, 0.35294117647058826], [0.0, 0.625, 0.375], [0.0, 0.5714285714285714, 0.42857142857142855], [0.0, 0.6153846153846154, 0.38461538461538464], [0.0, 0.0, 1.0], [0.0, 1.0, 0.0], [1.0, 0.0, 0.0], [0.075, 0.925, 0.0], [0.09090909090909091, 0.9090909090909091, 0.0], [0.037037037037037035, 0.9629629629629629, 0.0], [0.06666666666666667, 0.9333333333333333, 0.0], [0.0, 1.0, 0.0], [0.3333333333333333, 0.6666666666666666, 0.0], [0.0, 1.0, 0.0], [0.44680851063829785, 0.46808510638297873, 0.0851063829787234], [0.3333333333333333, 0.5454545454545454, 0.12121212121212122], [0.16666666666666666, 0.75, 0.08333333333333333], [0.07692307692307693, 0.9230769230769231, 0.0], [0.2727272727272727, 0.5454545454545454, 0.18181818181818182], [1.0, 0.0, 0.0], [0.1111111111111111, 0.6666666666666666, 0.2222222222222222], [0.7777777777777778, 0.0, 0.2222222222222222], [1.0, 0.0, 0.0], [0.6, 0.0, 0.4], [0.7142857142857143, 0.2857142857142857, 0.0], [0.6923076923076923, 0.3076923076923077, 0.0], [0.0, 1.0, 0.0], [1.0, 0.0, 0.0], [1.0, 0.0, 0.0], [1.0, 0.0, 0.0], [0.3681592039800995, 0.15422885572139303, 0.47761194029850745], [0.34759358288770054, 0.15508021390374332, 0.49732620320855614], [0.0, 1.0, 0.0], [0.37142857142857144, 0.09714285714285714, 0.5314285714285715], [0.2421875, 0.1328125, 0.625], [0.45454545454545453, 0.0, 0.5454545454545454], [0.3333333333333333, 0.0, 0.6666666666666666], [0.0, 0.0, 1.0], [1.0, 0.0, 0.0], [0.6, 0.0, 0.4], [0.25, 0.0, 0.75], [0.8333333333333334, 0.0, 0.16666666666666666], [1.0, 0.0, 0.0], [0.75, 0.0, 0.25], [0.19811320754716982, 0.16037735849056603, 0.6415094339622641], [0.22340425531914893, 0.18085106382978725, 0.5957446808510638], [0.23076923076923078, 0.18681318681318682, 0.5824175824175825], [0.7391304347826086, 0.0, 0.2608695652173913], [0.6153846153846154, 0.0, 0.38461538461538464], [0.2857142857142857, 0.0, 0.7142857142857143], [1.0, 0.0, 0.0], [0.9, 0.0, 0.1], [0.0, 0.0, 1.0], [1.0, 0.0, 0.0], [0.058823529411764705, 0.25, 0.6911764705882353], [0.0, 0.41379310344827586, 0.5862068965517241], [0.0, 0.375, 0.625], [0.0, 0.6, 0.4], [0.10256410256410256, 0.1282051282051282, 0.7692307692307693], [0.15384615384615385, 0.0, 0.8461538461538461], [0.0, 0.38461538461538464, 0.6153846153846154], [0.0, 0.0, 1.0], [0.0, 0.0, 1.0], [0.723404255319149, 0.0, 0.2765957446808511], [1.0, 0.0, 0.0], [0.717391304347826, 0.0, 0.2826086956521739], [0.7692307692307693, 0.0, 0.23076923076923078], [0.7272727272727273, 0.0, 0.2727272727272727], [0.7, 0.0, 0.3], [0.0, 0.0, 1.0], [1.0, 0.0, 0.0], [1.0, 0.0, 0.0], [1.0, 0.0, 0.0], [0.696969696969697, 0.0, 0.30303030303030304], [0.7666666666666667, 0.0, 0.23333333333333334], [0.8571428571428571, 0.0, 0.14285714285714285], [1.0, 0.0, 0.0], [0.6666666666666666, 0.0, 0.3333333333333333], [0.7391304347826086, 0.0, 0.2608695652173913], [0.4, 0.0, 0.6], [0.2, 0.0, 0.8], [0.6, 0.0, 0.4], [1.0, 0.0, 0.0], [0.0, 0.0, 1.0], [0.6428571428571429, 0.14285714285714285, 0.21428571428571427], [0.8, 0.2, 0.0], [0.6666666666666666, 0.3333333333333333, 0.0], [1.0, 0.0, 0.0], [0.25, 0.0, 0.75]]}, {"children_left": [1, 2, 3, -1, 5, 6, 7, -1, 9, 10, 11, 12, -1, -1, -1, -1, -1, 18, -1, -1, 21, -1, -1, 24, 25, 26, 27, 28, 29, 30, -1, -1, -1, -1, -1, -1, 37, 38, 39, 40, -1, 42, -1, -1, -1, -1, 47, 48, -1, 50, 51, 52, -1, -1, -1, -1, 57, 58, -1, -1, -1, 62, -1, 64, 65, -1, -1, -1, 69, 70, 71, -1, 73, 74, 75, -1, 77, -1, 79, -1, -1, -1, -1, -1, 85, 86, 87, 88, -1, -1, -1, 92, -1, -1, 95, 96, 97, -1, -1, -1, 101, 102, 103, -1, -1, -1, 107, -1, -1], "children_right": [68, 23, 4, -1, 20, 17, 8, -1, 16, 15, 14, 13, -1, -1, -1, -1, -1, 19, -1, -1, 22, -1, -1, 61, 36, 35, 34, 33, 32, 31, -1, -1, -1, -1, -1, -1, 46, 45, 44, 41, -1, 43, -1, -1, -1, -1, 56, 49, -1, 55, 54, 53, -1, -1, -1, -1, 60, 59, -1, -1, -1, 63, -1, 67, 66, -1, -1, -1, 84, 83, 72, -1, 82, 81, 76, -1, 78, -1, 80, -1, -1, -1, -1, -1, 94, 91, 90, 89, -1, -1, -1, 93, -1, -1, 100, 99, 98, -1, -1, -1, 106, 105, 104, -1, -1, -1, 108, -1, -1], "feature": [6, 4, 11, -2, 0, 23, 18, -2, 12, 15, 10, 0, -2, -2, -2, -2, -2, 17, -2, -2, 0, -2, -2, 17, 19, 0, 18, 0, 0, 0, -2, -2, -2, -2, -2, -2, 0, 20, 24, 18, -2, 8, -2, -2, -2, -2, 20, 11, -2, 15, 1, 0, -2, -2, -2, -2, 22, 0, -2, -2, -2, 0, -2, 1, 0, -2, -2, -2, 22, 2, 16, -2, 15, 24, 11, -2, 4, -2, 0, -2, -2, -2, -2, -2, 21, 1, 8, 12, -2, -2, -2, 4, -2, -2, 0, 1, 5, -2, -2, -2, 0, 5, 13, -2, -2, -2, 3, -2, -2], "threshold": [0.5, 0.5, 0.5, -2.0, 1779.5, 0.5, 0.5, -2.0, 0.5, 0.5, 0.5, 1186.0, -2.0, -2.0, -2.0, -2.0, -2.0, 0.5, -2.0, -2.0, 1937.5, -2.0, -2.0, 0.5, 0.5, 1255.0, 0.5, 1055.0, 975.0, 904.5, -2.0, -2.0, -2.0, -2.0, -2.0, -2.0, 1217.0, 0.5, 1.5, 0.5, -2.0, 0.5, -2.0, -2.0, -2.0, -2.0, 0.5, 0.5, -2.0, 0.5, 0.5, 1424.5, -2.0, -2.0, -2.0, -2.0, 0.5, 1250.0, -2.0, -2.0, -2.0, 1398.5, -2.0, 0.5, 1500.5, -2.0, -2.0, -2.0, 0.5, 0.5, 0.5, -2.0, 0.5, 2.5, 0.5, -2.0, 0.5, -2.0, 1670.0, -2.0, -2.0, -2.0, -2.0, -2.0, 0.5, 0.5, 0.5, 0.5, -2.0, -2.0, -2.0, 0.5, -2.0, -2.0, 1579.5, 0.5, 0.5, -2.0, -2.0, -2.0, 1793.5, 0.5, 0.5, -2.0, -2.0, -2.0, 0.5, -2.0, -2.0], "value": [[0.3569482288828338, 0.3188010899182561, 0.3242506811989101], [0.18775510204081633, 0.47346938775510206, 0.33877551020408164], [0.1917808219178082, 0.1780821917808219, 0.6301369863013698], [0.0, 0.8888888888888888, 0.1111111111111111], [0.21875, 0.078125, 0.703125], [0.14814814814814814, 0.07407407407407407, 0.7777777777777778], [0.2857142857142857, 0.07142857142857142, 0.6428571428571429], [0.5, 0.5, 0.0], [0.25, 0.0, 0.75], [0.3, 0.0, 0.7], [0.2631578947368421, 0.0, 0.7368421052631579], [0.15384615384615385, 0.0, 0.8461538461538461], [0.6666666666666666, 0.0, 0.3333333333333333], [0.0, 0.0, 1.0], [0.5, 0.0, 0.5], [1.0, 0.0, 0.0], [0.0, 0.0, 1.0], [0.0, 0.07692307692307693, 0.9230769230769231], [0.0, 0.0, 1.0], [0.0, 0.4, 0.6], [0.6, 0.1, 0.3], [1.0, 0.0, 0.0], [0.3333333333333333, 0.16666666666666666, 0.5], [0.18604651162790697, 0.5988372093023255, 0.21511627906976744], [0.24615384615384617, 0.6384615384615384, 0.11538461538461539], [0.07317073170731707, 0.7804878048780488, 0.14634146341463414], [0.15, 0.55, 0.3], [0.05555555555555555, 0.6111111111111112, 0.3333333333333333], [0.0, 0.6470588235294118, 0.35294117647058826], [0.0, 0.625, 0.375], [0.0, 0.6666666666666666, 0.3333333333333333], [0.0, 0.5, 0.5], [0.0, 1.0, 0.0], [1.0, 0.0, 0.0], [1.0, 0.0, 0.0], [0.0, 1.0, 0.0], [0.3258426966292135, 0.5730337078651685, 0.10112359550561797], [0.06382978723404255, 0.9361702127659575, 0.0], [0.06818181818181818, 0.9318181818181818, 0.0], [0.11538461538461539, 0.8846153846153846, 0.0], [0.0, 1.0, 0.0], [0.16666666666666666, 0.8333333333333334, 0.0], [0.0625, 0.9375, 0.0], [1.0, 0.0, 0.0], [0.0, 1.0, 0.0], [0.0, 1.0, 0.0], [0.6190476190476191, 0.16666666666666666, 0.21428571428571427], [0.6470588235294118, 0.20588235294117646, 0.14705882352941177], [1.0, 0.0, 0.0], [0.6363636363636364, 0.21212121212121213, 0.15151515151515152], [0.5, 0.2916666666666667, 0.20833333333333334], [0.5, 0.3888888888888889, 0.1111111111111111], [0.75, 0.0, 0.25], [0.3, 0.7, 0.0], [0.5, 0.0, 0.5], [1.0, 0.0, 0.0], [0.5, 0.0, 0.5], [0.6666666666666666, 0.0, 0.3333333333333333], [0.0, 0.0, 1.0], [1.0, 0.0, 0.0], [0.0, 0.0, 1.0], [0.0, 0.47619047619047616, 0.5238095238095238], [0.0, 0.875, 0.125], [0.0, 0.23076923076923078, 0.7692307692307693], [0.0, 0.2727272727272727, 0.7272727272727273], [0.0, 0.0, 1.0], [0.0, 0.5454545454545454, 0.45454545454545453], [0.0, 0.0, 1.0], [0.6967213114754098, 0.00819672131147541, 0.29508196721311475], [0.8055555555555556, 0.0, 0.19444444444444445], [0.7878787878787878, 0.0, 0.21212121212121213], [0.0, 0.0, 1.0], [0.8666666666666667, 0.0, 0.13333333333333333], [0.9615384615384616, 0.0, 0.038461538461538464], [0.875, 0.0, 0.125], [1.0, 0.0, 0.0], [0.8571428571428571, 0.0, 0.14285714285714285], [1.0, 0.0, 0.0], [0.8, 0.0, 0.2], [1.0, 0.0, 0.0], [0.5, 0.0, 0.5], [1.0, 0.0, 0.0], [0.25, 0.0, 0.75], [1.0, 0.0, 0.0], [0.6511627906976745, 0.011627906976744186, 0.3372093023255814], [0.375, 0.03125, 0.59375], [0.2916666666666667, 0.041666666666666664, 0.6666666666666666], [0.0, 0.058823529411764705, 0.9411764705882353], [0.0, 0.0, 1.0], [0.0, 0.16666666666666666, 0.8333333333333334], [1.0, 0.0, 0.0], [0.625, 0.0, 0.375], [0.25, 0.0, 0.75], [1.0, 0.0, 0.0], [0.8148148148148148, 0.0, 0.18518518518518517], [0.3, 0.0, 0.7], [0.2222222222222222, 0.0, 0.7777777777777778], [0.6666666666666666, 0.0, 0.3333333333333333], [0.0, 0.0, 1.0], [1.0, 0.0, 0.0], [0.9318181818181818, 0.0, 0.06818181818181818], [0.8, 0.0, 0.2], [0.75, 0.0, 0.25], [0.6666666666666666, 0.0, 0.3333333333333333], [1.0, 0.0, 0.0], [1.0, 0.0, 0.0], [0.9705882352941176, 0.0, 0.029411764705882353], [0.8, 0.0, 0.2], [1.0, 0.0, 0.0]]}, {"children_left": [1, 2, 3, -1, 5, 6, -1, -1, 9, 10, 11, -1, -1, -1, -1, 16, 17, 18, -1, 20, -1, 22, -1, -1, 25, 26, 27, -1, -1, -1, 31, -1, -1, 34, -1, 36, 37, 38, -1, -1, -1, -1, 43, 44, -1, 46, 47, 48, -1, -1, 51, -1, -1, -1, 55, 56, 57, 58, 59, 60, -1, 62, 63, -1, -1, 66, -1, -1, 69, -1, 71, -1, -1, 74, -1, -1, -1, -1, 79, 80, 81, 82, -1, -1, -1, 86, 87, 88, 89, 90, -1, -1, -1, -1, 95, 96, -1, -1, -1, 100, 101, -1, -1, -1, 105, 106, -1, 108, 109, 110, 111, -1, -1, -1, 115, -1, -1, -1, -1], "children_right": [42, 15, 4, -1, 8, 7, -1, -1, 14, 13, 12, -1, -1, -1, -1, 33, 24, 19, -1, 21, -1, 23, -1, -1, 30, 29, 28, -1, -1, -1, 32, -1, -1, 35, -1, 41, 40, 39, -1, -1, -1, -1, 54, 45, -1, 53, 50, 49, -1, -1, 52, -1, -1, -1, 78, 77, 76, 73, 68, 61, -1, 65, 64, -1, -1, 67, -1, -1, 70, -1, 72, -1, -1, 75, -1, -1, -1, -1, 104, 85, 84, 83, -1, -1, -1, 99, 94, 93, 92, 91, -1, -1, -1, -1, 98, 97, -1, -1, -1, 103, 102, -1, -1, -1, 118, 107, -1, 117, 114, 113, 112, -1, -1, -1, 116, -1, -1, -1, -1], "feature": [4, 20, 19, -2, 18, 0, -2, -2, 15, 0, 10, -2, -2, -2, -2, 0, 6, 0, -2, 11, -2, 0, -2, -2, 0, 15, 10, -2, -2, -2, 17, -2, -2, 24, -2, 15, 2, 12, -2, -2, -2, -2, 18, 11, -2, 24, 19, 0, -2, -2, 0, -2, -2, -2, 24, 10, 2, 15, 16, 11, -2, 1, 12, -2, -2, 0, -2, -2, 0, -2, 7, -2, -2, 0, -2, -2, -2, -2, 14, 17, 15, 0, -2, -2, -2, 21, 0, 7, 6, 0, -2, -2, -2, -2, 12, 6, -2, -2, -2, 0, 0, -2, -2, -2, 5, 6, -2, 0, 13, 8, 0, -2, -2, -2, 1, -2, -2, -2, -2], "threshold": [0.5, 0.5, 0.5, -2.0, 0.5, 2129.0, -2.0, -2.0, 0.5, 1457.5, 0.5, -2.0, -2.0, -2.0, -2.0, 1835.0, 0.5, 1469.0, -2.0, 0.5, -2.0, 1516.5, -2.0, -2.0, 1543.5, 0.5, 0.5, -2.0, -2.0, -2.0, 0.5, -2.0, -2.0, 2.5, -2.0, 0.5, 0.5, 0.5, -2.0, -2.0, -2.0, -2.0, 0.5, 0.5, -2.0, 1.5, 0.5, 904.5, -2.0, -2.0, 1158.0, -2.0, -2.0, -2.0, 2.5, 0.5, 0.5, 0.5, 0.5, 0.5, -2.0, 0.5, 0.5, -2.0, -2.0, 1879.0, -2.0, -2.0, 1084.0, -2.0, 0.5, -2.0, -2.0, 1806.0, -2.0, -2.0, -2.0, -2.0, 0.5, 0.5, 0.5, 1789.5, -2.0, -2.0, -2.0, 0.5, 1671.0, 0.5, 0.5, 1238.5, -2.0, -2.0, -2.0, -2.0, 0.5, 0.5, -2.0, -2.0, -2.0, 2091.5, 1633.0, -2.0, -2.0, -2.0, 0.5, 0.5, -2.0, 2053.0, 0.5, 0.5, 1632.5, -2.0, -2.0, -2.0, 0.5, -2.0, -2.0, -2.0, -2.0], "value": [[0.36239782016348776, 0.3133514986376022, 0.3242506811989101], [0.26851851851851855, 0.17592592592592593, 0.5555555555555556], [0.3170731707317073, 0.3902439024390244, 0.2926829268292683], [0.0, 1.0, 0.0], [0.38235294117647056, 0.2647058823529412, 0.35294117647058826], [0.25, 0.75, 0.0], [0.1, 0.9, 0.0], [1.0, 0.0, 0.0], [0.45454545454545453, 0.0, 0.5454545454545454], [0.3684210526315789, 0.0, 0.631578947368421], [0.5, 0.0, 0.5], [0.125, 0.0, 0.875], [1.0, 0.0, 0.0], [0.0, 0.0, 1.0], [1.0, 0.0, 0.0], [0.23880597014925373, 0.04477611940298507, 0.7164179104477612], [0.17307692307692307, 0.057692307692307696, 0.7692307692307693], [0.03125, 0.09375, 0.875], [0.0, 0.0, 1.0], [0.08333333333333333, 0.25, 0.6666666666666666], [0.0, 0.0, 1.0], [0.1, 0.3, 0.6], [0.0, 1.0, 0.0], [0.14285714285714285, 0.0, 0.8571428571428571], [0.4, 0.0, 0.6], [0.75, 0.0, 0.25], [0.6666666666666666, 0.0, 0.3333333333333333], [0.0, 0.0, 1.0], [1.0, 0.0, 0.0], [1.0, 0.0, 0.0], [0.16666666666666666, 0.0, 0.8333333333333334], [0.4, 0.0, 0.6], [0.0, 0.0, 1.0], [0.4666666666666667, 0.0, 0.5333333333333333], [1.0, 0.0, 0.0], [0.38461538461538464, 0.0, 0.6153846153846154], [0.5, 0.0, 0.5], [0.8333333333333334, 0.0, 0.16666666666666666], [1.0, 0.0, 0.0], [0.0, 0.0, 1.0], [0.0, 0.0, 1.0], [0.0, 0.0, 1.0], [0.4015444015444015, 0.37065637065637064, 0.2277992277992278], [0.05970149253731343, 0.835820895522388, 0.1044776119402985], [0.0, 1.0, 0.0], [0.06896551724137931, 0.8103448275862069, 0.1206896551724138], [0.10526315789473684, 0.7105263157894737, 0.18421052631578946], [0.0, 0.7083333333333334, 0.2916666666666667], [0.0, 0.5384615384615384, 0.46153846153846156], [0.0, 0.9090909090909091, 0.09090909090909091], [0.2857142857142857, 0.7142857142857143, 0.0], [1.0, 0.0, 0.0], [0.09090909090909091, 0.9090909090909091, 0.0], [0.0, 1.0, 0.0], [0.5208333333333334, 0.20833333333333334, 0.2708333333333333], [0.6571428571428571, 0.2714285714285714, 0.07142857142857142], [0.6190476190476191, 0.30158730158730157, 0.07936507936507936], [0.5862068965517241, 0.3275862068965517, 0.08620689655172414], [0.5555555555555556, 0.3333333333333333, 0.1111111111111111], [0.5882352941176471, 0.35294117647058826, 0.058823529411764705], [1.0, 0.0, 0.0], [0.5757575757575758, 0.36363636363636365, 0.06060606060606061], [0.5185185185185185, 0.4444444444444444, 0.037037037037037035], [0.5, 0.46153846153846156, 0.038461538461538464], [1.0, 0.0, 0.0], [0.8333333333333334, 0.0, 0.16666666666666666], [1.0, 0.0, 0.0], [0.5, 0.0, 0.5], [0.45454545454545453, 0.2727272727272727, 0.2727272727272727], [0.0, 1.0, 0.0], [0.625, 0.0, 0.375], [0.3333333333333333, 0.0, 0.6666666666666666], [0.8, 0.0, 0.2], [0.6923076923076923, 0.3076923076923077, 0.0], [0.5, 0.5, 0.0], [1.0, 0.0, 0.0], [1.0, 0.0, 0.0], [1.0, 0.0, 0.0], [0.4426229508196721, 0.1721311475409836, 0.38524590163934425], [0.26865671641791045, 0.26865671641791045, 0.4626865671641791], [0.7692307692307693, 0.0, 0.23076923076923078], [0.7272727272727273, 0.0, 0.2727272727272727], [0.4, 0.0, 0.6], [1.0, 0.0, 0.0], [1.0, 0.0, 0.0], [0.14814814814814814, 0.3333333333333333, 0.5185185185185185], [0.023809523809523808, 0.42857142857142855, 0.5476190476190477], [0.0, 0.625, 0.375], [0.0, 0.6521739130434783, 0.34782608695652173], [0.0, 0.75, 0.25], [0.0, 0.5, 0.5], [0.0, 0.8571428571428571, 0.14285714285714285], [0.0, 0.0, 1.0], [0.0, 0.0, 1.0], [0.05555555555555555, 0.16666666666666666, 0.7777777777777778], [0.08333333333333333, 0.0, 0.9166666666666666], [0.0, 0.0, 1.0], [0.2, 0.0, 0.8], [0.0, 0.5, 0.5], [0.5833333333333334, 0.0, 0.4166666666666667], [0.7777777777777778, 0.0, 0.2222222222222222], [0.0, 0.0, 1.0], [1.0, 0.0, 0.0], [0.0, 0.0, 1.0], [0.6545454545454545, 0.05454545454545454, 0.2909090909090909], [0.6346153846153846, 0.057692307692307696, 0.3076923076923077], [0.0, 1.0, 0.0], [0.673469387755102, 0.0, 0.32653061224489793], [0.42857142857142855, 0.0, 0.5714285714285714], [0.3157894736842105, 0.0, 0.6842105263157895], [0.13333333333333333, 0.0, 0.8666666666666667], [0.0, 0.0, 1.0], [0.2, 0.0, 0.8], [1.0, 0.0, 0.0], [0.6666666666666666, 0.0, 0.3333333333333333], [0.5, 0.0, 0.5], [1.0, 0.0, 0.0], [1.0, 0.0, 0.0], [1.0, 0.0, 0.0]]}, {"children_left": [1, 2, 3, 4, 5, -1, 7, 8, -1, 10, 11, 12, -1, -1, -1, -1, 17, -1, -1, -1, 21, 22, 23, -1, -1, 26, -1, 28, -1, -1, 31, 32, -1, -1, 35, -1, 37, 38, 39, 40, -1, -1, -1, -1, -1, 46, 47, -1, 49, 50, -1, -1, -1, -1, 55, 56, 57, -1, 59, 60, 61, 62, -1, 64, 65, -1, -1, -1, 69, -1, -1, 72, 73, -1, -1, 76, 77, 78, -1, -1, -1, -1, 83, 84, -1, -1, 87, 88, -1, -1, -1, 92, 93, 94, 95, 96, 97, -1, -1, -1, -1, -1, -1, -1, 105, -1, 107, -1, 109, 110, 111, -1, -1, -1, -1], "children_right": [54, 45, 20, 19, 6, -1, 16, 9, -1, 15, 14, 13, -1, -1, -1, -1, 18, -1, -1, -1, 30, 25, 24, -1, -1, 27, -1, 29, -1, -1, 34, 33, -1, -1, 36, -1, 44, 43, 42, 41, -1, -1, -1, -1, -1, 53, 48, -1, 52, 51, -1, -1, -1, -1, 104, 91, 58, -1, 82, 71, 68, 63, -1, 67, 66, -1, -1, -1, 70, -1, -1, 75, 74, -1, -1, 81, 80, 79, -1, -1, -1, -1, 86, 85, -1, -1, 90, 89, -1, -1, -1, 103, 102, 101, 100, 99, 98, -1, -1, -1, -1, -1, -1, -1, 106, -1, 108, -1, 114, 113, 112, -1, -1, -1, -1], "feature": [16, 15, 3, 1, 11, -2, 8, 18, -2, 10, 0, 0, -2, -2, -2, -2, 0, -2, -2, -2, 18, 0, 0, -2, -2, 19, -2, 0, -2, -2, 0, 0, -2, -2, 0, -2, 1, 5, 8, 12, -2, -2, -2, -2, -2, 0, 18, -2, 10, 0, -2, -2, -2, -2, 14, 7, 18, -2, 6, 4, 22, 24, -2, 12, 0, -2, -2, -2, 0, -2, -2, 17, 8, -2, -2, 2, 21, 0, -2, -2, -2, -2, 3, 1, -2, -2, 12, 10, -2, -2, -2, 8, 17, 2, 0, 15, 3, -2, -2, -2, -2, -2, -2, -2, 6, -2, 2, -2, 13, 5, 3, -2, -2, -2, -2], "threshold": [0.5, 0.5, 0.5, 0.5, 0.5, -2.0, 0.5, 0.5, -2.0, 0.5, 1561.0, 1401.0, -2.0, -2.0, -2.0, -2.0, 1405.5, -2.0, -2.0, -2.0, 0.5, 975.0, 882.0, -2.0, -2.0, 0.5, -2.0, 1625.5, -2.0, -2.0, 1202.0, 1159.5, -2.0, -2.0, 1277.0, -2.0, 0.5, 0.5, 0.5, 0.5, -2.0, -2.0, -2.0, -2.0, -2.0, 1787.0, 0.5, -2.0, 0.5, 1672.5, -2.0, -2.0, -2.0, -2.0, 0.5, 0.5, 0.5, -2.0, 0.5, 0.5, 0.5, 2.5, -2.0, 0.5, 2086.5, -2.0, -2.0, -2.0, 1469.0, -2.0, -2.0, 0.5, 0.5, -2.0, -2.0, 0.5, 0.5, 1675.5, -2.0, -2.0, -2.0, -2.0, 0.5, 0.5, -2.0, -2.0, 0.5, 0.5, -2.0, -2.0, -2.0, 0.5, 0.5, 0.5, 1875.0, 0.5, 0.5, -2.0, -2.0, -2.0, -2.0, -2.0, -2.0, -2.0, 0.5, -2.0, 0.5, -2.0, 0.5, 0.5, 0.5, -2.0, -2.0, -2.0, -2.0], "value": [[0.329700272479564, 0.35967302452316074, 0.3106267029972752], [0.2737430167597765, 0.547486033519553, 0.1787709497206704], [0.19078947368421054, 0.5986842105263158, 0.21052631578947367], [0.28888888888888886, 0.37777777777777777, 0.3333333333333333], [0.2894736842105263, 0.4473684210526316, 0.2631578947368421], [0.0, 1.0, 0.0], [0.36666666666666664, 0.3, 0.3333333333333333], [0.3157894736842105, 0.47368421052631576, 0.21052631578947367], [0.0, 1.0, 0.0], [0.6, 0.0, 0.4], [0.5555555555555556, 0.0, 0.4444444444444444], [0.42857142857142855, 0.0, 0.5714285714285714], [0.6, 0.0, 0.4], [0.0, 0.0, 1.0], [1.0, 0.0, 0.0], [1.0, 0.0, 0.0], [0.45454545454545453, 0.0, 0.5454545454545454], [0.8, 0.0, 0.2], [0.16666666666666666, 0.0, 0.8333333333333334], [0.2857142857142857, 0.0, 0.7142857142857143], [0.14953271028037382, 0.6915887850467289, 0.1588785046728972], [0.02666666666666667, 0.8533333333333334, 0.12], [0.0, 0.7096774193548387, 0.2903225806451613], [0.0, 0.8666666666666667, 0.13333333333333333], [0.0, 0.5625, 0.4375], [0.045454545454545456, 0.9545454545454546, 0.0], [0.09090909090909091, 0.9090909090909091, 0.0], [0.030303030303030304, 0.9696969696969697, 0.0], [0.0, 1.0, 0.0], [1.0, 0.0, 0.0], [0.4375, 0.3125, 0.25], [0.2222222222222222, 0.7777777777777778, 0.0], [0.6666666666666666, 0.3333333333333333, 0.0], [0.0, 1.0, 0.0], [0.5217391304347826, 0.13043478260869565, 0.34782608695652173], [0.0, 0.0, 1.0], [0.631578947368421, 0.15789473684210525, 0.21052631578947367], [0.7692307692307693, 0.23076923076923078, 0.0], [0.75, 0.25, 0.0], [0.7272727272727273, 0.2727272727272727, 0.0], [0.7, 0.3, 0.0], [1.0, 0.0, 0.0], [1.0, 0.0, 0.0], [1.0, 0.0, 0.0], [0.3333333333333333, 0.0, 0.6666666666666666], [0.7407407407407407, 0.25925925925925924, 0.0], [0.5, 0.5, 0.0], [0.3333333333333333, 0.6666666666666666, 0.0], [0.5454545454545454, 0.45454545454545453, 0.0], [0.5, 0.5, 0.0], [1.0, 0.0, 0.0], [0.0, 1.0, 0.0], [1.0, 0.0, 0.0], [1.0, 0.0, 0.0], [0.3829787234042553, 0.18085106382978725, 0.43617021276595747], [0.2702702702702703, 0.21621621621621623, 0.5135135135135135], [0.13675213675213677, 0.27350427350427353, 0.5897435897435898], [0.0, 1.0, 0.0], [0.14035087719298245, 0.2543859649122807, 0.6052631578947368], [0.0625, 0.2875, 0.65], [0.07317073170731707, 0.17073170731707318, 0.7560975609756098], [0.13043478260869565, 0.0, 0.8695652173913043], [0.0, 0.0, 1.0], [0.1875, 0.0, 0.8125], [0.23076923076923078, 0.0, 0.7692307692307693], [0.16666666666666666, 0.0, 0.8333333333333334], [1.0, 0.0, 0.0], [0.0, 0.0, 1.0], [0.0, 0.3888888888888889, 0.6111111111111112], [0.0, 0.0, 1.0], [0.0, 1.0, 0.0], [0.05128205128205128, 0.41025641025641024, 0.5384615384615384], [0.18181818181818182, 0.6363636363636364, 0.18181818181818182], [0.1, 0.7, 0.2], [1.0, 0.0, 0.0], [0.0, 0.32142857142857145, 0.6785714285714286], [0.0, 0.20833333333333334, 0.7916666666666666], [0.0, 0.22727272727272727, 0.7727272727272727], [0.0, 0.7142857142857143, 0.2857142857142857], [0.0, 0.0, 1.0], [0.0, 0.0, 1.0], [0.0, 1.0, 0.0], [0.3235294117647059, 0.17647058823529413, 0.5], [0.8571428571428571, 0.0, 0.14285714285714285], [0.8, 0.0, 0.2], [1.0, 0.0, 0.0], [0.18518518518518517, 0.2222222222222222, 0.5925925925925926], [0.26666666666666666, 0.0, 0.7333333333333333], [0.4, 0.0, 0.6], [0.2, 0.0, 0.8], [0.08333333333333333, 0.5, 0.4166666666666667], [0.7741935483870968, 0.0, 0.22580645161290322], [0.7307692307692307, 0.0, 0.2692307692307692], [0.8260869565217391, 0.0, 0.17391304347826086], [0.7894736842105263, 0.0, 0.21052631578947367], [0.6923076923076923, 0.0, 0.3076923076923077], [0.8, 0.0, 0.2], [1.0, 0.0, 0.0], [0.6666666666666666, 0.0, 0.3333333333333333], [0.3333333333333333, 0.0, 0.6666666666666666], [1.0, 0.0, 0.0], [1.0, 0.0, 0.0], [0.0, 0.0, 1.0], [1.0, 0.0, 0.0], [0.8, 0.05, 0.15], [0.0, 1.0, 0.0], [0.8421052631578947, 0.0, 0.15789473684210525], [1.0, 0.0, 0.0], [0.5384615384615384, 0.0, 0.46153846153846156], [0.45454545454545453, 0.0, 0.5454545454545454], [0.3333333333333333, 0.0, 0.6666666666666666], [0.5, 0.0, 0.5], [0.2, 0.0, 0.8], [1.0, 0.0, 0.0], [1.0, 0.0, 0.0]]}, {"children_left": [1, 2, 3, 4, -1, -1, 7, 8, 9, 10, -1, -1, -1, -1, 15, -1, 17, 18, 19, -1, -1, -1, -1, 24, 25, -1, -1, 28, 29, 30, 31, 32, 33, 34, -1, -1, 37, -1, -1, 40, 41, -1, -1, -1, -1, 46, -1, -1, 49, 50, 51, 52, -1, -1, -1, 56, 57, -1, -1, 60, -1, -1, 63, -1, 65, 66, -1, -1, -1, 70, 71, 72, 73, 74, 75, -1, -1, 78, -1, -1, -1, -1, -1, -1, 85, -1, 87, 88, 89, -1, -1, -1, 93, 94, 95, 96, -1, 98, -1, -1, -1, -1, -1], "children_right": [84, 23, 6, 5, -1, -1, 14, 13, 12, 11, -1, -1, -1, -1, 16, -1, 22, 21, 20, -1, -1, -1, -1, 27, 26, -1, -1, 69, 48, 45, 44, 39, 36, 35, -1, -1, 38, -1, -1, 43, 42, -1, -1, -1, -1, 47, -1, -1, 62, 55, 54, 53, -1, -1, -1, 59, 58, -1, -1, 61, -1, -1, 64, -1, 68, 67, -1, -1, -1, 83, 82, 81, 80, 77, 76, -1, -1, 79, -1, -1, -1, -1, -1, -1, 86, -1, 92, 91, 90, -1, -1, -1, 102, 101, 100, 97, -1, 99, -1, -1, -1, -1, -1], "feature": [14, 0, 3, 8, -2, -2, 19, 0, 0, 0, -2, -2, -2, -2, 0, -2, 16, 18, 24, -2, -2, -2, -2, 18, 0, -2, -2, 22, 4, 7, 0, 8, 24, 1, -2, -2, 12, -2, -2, 16, 0, -2, -2, -2, -2, 15, -2, -2, 1, 23, 15, 0, -2, -2, -2, 7, 15, -2, -2, 10, -2, -2, 19, -2, 23, 0, -2, -2, -2, 8, 2, 15, 12, 6, 4, -2, -2, 3, -2, -2, -2, -2, -2, -2, 0, -2, 3, 12, 1, -2, -2, -2, 8, 0, 12, 0, -2, 0, -2, -2, -2, -2, -2], "threshold": [0.5, 1210.0, 0.5, 0.5, -2.0, -2.0, 0.5, 1055.0, 975.0, 904.5, -2.0, -2.0, -2.0, -2.0, 1092.5, -2.0, 0.5, 0.5, 1.5, -2.0, -2.0, -2.0, -2.0, 0.5, 1796.5, -2.0, -2.0, 0.5, 0.5, 0.5, 2115.0, 0.5, 2.5, 0.5, -2.0, -2.0, 0.5, -2.0, -2.0, 0.5, 1369.0, -2.0, -2.0, -2.0, -2.0, 0.5, -2.0, -2.0, 0.5, 0.5, 0.5, 1553.5, -2.0, -2.0, -2.0, 0.5, 0.5, -2.0, -2.0, 0.5, -2.0, -2.0, 0.5, -2.0, 0.5, 1856.0, -2.0, -2.0, -2.0, 0.5, 0.5, 0.5, 0.5, 0.5, 0.5, -2.0, -2.0, 0.5, -2.0, -2.0, -2.0, -2.0, -2.0, -2.0, 1264.0, -2.0, 0.5, 0.5, 0.5, -2.0, -2.0, -2.0, 0.5, 2053.0, 0.5, 1543.5, -2.0, 1799.5, -2.0, -2.0, -2.0, -2.0, -2.0], "value": [[0.32697547683923706, 0.33242506811989103, 0.3405994550408719], [0.2692307692307692, 0.38461538461538464, 0.34615384615384615], [0.06097560975609756, 0.7926829268292683, 0.14634146341463414], [0.058823529411764705, 0.5294117647058824, 0.4117647058823529], [0.0, 0.75, 0.25], [0.2, 0.0, 0.8], [0.06153846153846154, 0.8615384615384616, 0.07692307692307693], [0.08695652173913043, 0.782608695652174, 0.13043478260869565], [0.0, 0.8571428571428571, 0.14285714285714285], [0.0, 0.8125, 0.1875], [0.0, 0.8571428571428571, 0.14285714285714285], [0.0, 0.5, 0.5], [0.0, 1.0, 0.0], [1.0, 0.0, 0.0], [0.047619047619047616, 0.9047619047619048, 0.047619047619047616], [0.06666666666666667, 0.8, 0.13333333333333333], [0.037037037037037035, 0.9629629629629629, 0.0], [0.045454545454545456, 0.9545454545454546, 0.0], [0.0625, 0.9375, 0.0], [0.25, 0.75, 0.0], [0.0, 1.0, 0.0], [0.0, 1.0, 0.0], [0.0, 1.0, 0.0], [0.34347826086956523, 0.2391304347826087, 0.41739130434782606], [0.03225806451612903, 0.967741935483871, 0.0], [0.0, 1.0, 0.0], [0.14285714285714285, 0.8571428571428571, 0.0], [0.39195979899497485, 0.12562814070351758, 0.4824120603015075], [0.5151515151515151, 0.05303030303030303, 0.4318181818181818], [0.36923076923076925, 0.0, 0.6307692307692307], [0.2692307692307692, 0.0, 0.7307692307692307], [0.22448979591836735, 0.0, 0.7755102040816326], [0.15384615384615385, 0.0, 0.8461538461538461], [0.18181818181818182, 0.0, 0.8181818181818182], [0.23529411764705882, 0.0, 0.7647058823529411], [0.0, 0.0, 1.0], [0.11764705882352941, 0.0, 0.8823529411764706], [0.14285714285714285, 0.0, 0.8571428571428571], [0.0, 0.0, 1.0], [0.5, 0.0, 0.5], [0.625, 0.0, 0.375], [1.0, 0.0, 0.0], [0.5, 0.0, 0.5], [0.0, 0.0, 1.0], [1.0, 0.0, 0.0], [0.7692307692307693, 0.0, 0.23076923076923078], [1.0, 0.0, 0.0], [0.5, 0.0, 0.5], [0.6567164179104478, 0.1044776119402985, 0.23880597014925373], [0.5348837209302325, 0.13953488372093023, 0.32558139534883723], [0.55, 0.3, 0.15], [0.4, 0.4, 0.2], [0.1, 0.6, 0.3], [1.0, 0.0, 0.0], [1.0, 0.0, 0.0], [0.5217391304347826, 0.0, 0.4782608695652174], [0.2, 0.0, 0.8], [0.16666666666666666, 0.0, 0.8333333333333334], [0.25, 0.0, 0.75], [0.7692307692307693, 0.0, 0.23076923076923078], [0.4, 0.0, 0.6], [1.0, 0.0, 0.0], [0.875, 0.041666666666666664, 0.08333333333333333], [0.6666666666666666, 0.3333333333333333, 0.0], [0.9047619047619048, 0.0, 0.09523809523809523], [0.8333333333333334, 0.0, 0.16666666666666666], [1.0, 0.0, 0.0], [0.6666666666666666, 0.0, 0.3333333333333333], [1.0, 0.0, 0.0], [0.14925373134328357, 0.26865671641791045, 0.582089552238806], [0.11666666666666667, 0.23333333333333334, 0.65], [0.08620689655172414, 0.2413793103448276, 0.6724137931034483], [0.05357142857142857, 0.25, 0.6964285714285714], [0.057692307692307696, 0.21153846153846154, 0.7307692307692307], [0.0, 0.3142857142857143, 0.6857142857142857], [0.0, 0.35714285714285715, 0.6428571428571429], [0.0, 0.2857142857142857, 0.7142857142857143], [0.17647058823529413, 0.0, 0.8235294117647058], [0.0, 0.0, 1.0], [0.21428571428571427, 0.0, 0.7857142857142857], [0.0, 0.75, 0.25], [1.0, 0.0, 0.0], [1.0, 0.0, 0.0], [0.42857142857142855, 0.5714285714285714, 0.0], [0.6545454545454545, 0.03636363636363636, 0.3090909090909091], [0.0, 1.0, 0.0], [0.6792452830188679, 0.0, 0.32075471698113206], [0.4, 0.0, 0.6], [0.42857142857142855, 0.0, 0.5714285714285714], [0.625, 0.0, 0.375], [0.16666666666666666, 0.0, 0.8333333333333334], [0.0, 0.0, 1.0], [0.7894736842105263, 0.0, 0.21052631578947367], [0.6521739130434783, 0.0, 0.34782608695652173], [0.4666666666666667, 0.0, 0.5333333333333333], [0.5384615384615384, 0.0, 0.46153846153846156], [0.2857142857142857, 0.0, 0.7142857142857143], [0.8333333333333334, 0.0, 0.16666666666666666], [0.6666666666666666, 0.0, 0.3333333333333333], [1.0, 0.0, 0.0], [0.0, 0.0, 1.0], [1.0, 0.0, 0.0], [1.0, 0.0, 0.0]]}, {"children_left": [1, 2, 3, -1, 5, 6, -1, -1, 9, 10, 11, 12, -1, -1, -1, 16, 17, 18, 19, -1, -1, -1, -1, -1, 25, -1, -1, 28, 29, 30, 31, 32, -1, 34, 35, -1, -1, -1, 39, 40, 41, -1, 43, -1, -1, -1, -1, 48, -1, -1, 51, -1, 53, -1, -1, 56, 57, 58, 59, -1, -1, 62, 63, -1, -1, -1, -1, -1, 69, 70, 71, -1, 73, 74, -1, -1, -1, 78, 79, 80, -1, -1, 83, 84, -1, -1, -1, 88, 89, 90, -1, 92, -1, 94, -1, 96, -1, -1, 99, 100, 101, -1, -1, -1, -1, 106, -1, -1, 109, -1, 111, 112, -1, -1, -1], "children_right": [68, 27, 4, -1, 8, 7, -1, -1, 24, 15, 14, 13, -1, -1, -1, 23, 22, 21, 20, -1, -1, -1, -1, -1, 26, -1, -1, 55, 50, 47, 38, 33, -1, 37, 36, -1, -1, -1, 46, 45, 42, -1, 44, -1, -1, -1, -1, 49, -1, -1, 52, -1, 54, -1, -1, 67, 66, 61, 60, -1, -1, 65, 64, -1, -1, -1, -1, -1, 108, 77, 72, -1, 76, 75, -1, -1, -1, 87, 82, 81, -1, -1, 86, 85, -1, -1, -1, 105, 98, 91, -1, 93, -1, 95, -1, 97, -1, -1, 104, 103, 102, -1, -1, -1, -1, 107, -1, -1, 110, -1, 114, 113, -1, -1, -1], "feature": [6, 3, 11, -2, 18, 10, -2, -2, 17, 0, 23, 0, -2, -2, -2, 0, 20, 12, 10, -2, -2, -2, -2, -2, 0, -2, -2, 20, 15, 0, 18, 0, -2, 19, 11, -2, -2, -2, 1, 0, 0, -2, 0, -2, -2, -2, -2, 1, -2, -2, 0, -2, 19, -2, -2, 14, 5, 17, 0, -2, -2, 21, 0, -2, -2, -2, -2, -2, 10, 0, 17, -2, 7, 13, -2, -2, -2, 4, 17, 15, -2, -2, 13, 21, -2, -2, -2, 12, 0, 22, -2, 21, -2, 14, -2, 0, -2, -2, 21, 1, 0, -2, -2, -2, -2, 1, -2, -2, 3, -2, 22, 24, -2, -2, -2], "threshold": [0.5, 0.5, 0.5, -2.0, 0.5, 0.5, -2.0, -2.0, 0.5, 1310.0, 0.5, 1114.0, -2.0, -2.0, -2.0, 2115.0, 0.5, 0.5, 0.5, -2.0, -2.0, -2.0, -2.0, -2.0, 1469.0, -2.0, -2.0, 0.5, 0.5, 1626.0, 0.5, 860.0, -2.0, 0.5, 0.5, -2.0, -2.0, -2.0, 0.5, 1424.5, 1100.0, -2.0, 1163.5, -2.0, -2.0, -2.0, -2.0, 0.5, -2.0, -2.0, 1624.0, -2.0, 0.5, -2.0, -2.0, 0.5, 0.5, 0.5, 1111.5, -2.0, -2.0, 0.5, 1675.5, -2.0, -2.0, -2.0, -2.0, -2.0, 0.5, 1487.5, 0.5, -2.0, 0.5, 0.5, -2.0, -2.0, -2.0, 0.5, 0.5, 0.5, -2.0, -2.0, 0.5, 0.5, -2.0, -2.0, -2.0, 0.5, 1843.5, 0.5, -2.0, 0.5, -2.0, 0.5, -2.0, 1799.5, -2.0, -2.0, 0.5, 0.5, 1985.0, -2.0, -2.0, -2.0, -2.0, 0.5, -2.0, -2.0, 0.5, -2.0, 0.5, 2.5, -2.0, -2.0, -2.0], "value": [[0.2997275204359673, 0.34332425068119893, 0.3569482288828338], [0.14754098360655737, 0.4959016393442623, 0.35655737704918034], [0.10752688172043011, 0.26881720430107525, 0.6236559139784946], [0.0, 0.8333333333333334, 0.16666666666666666], [0.12345679012345678, 0.18518518518518517, 0.691358024691358], [0.26666666666666666, 0.6, 0.13333333333333333], [0.25, 0.75, 0.0], [0.3333333333333333, 0.0, 0.6666666666666666], [0.09090909090909091, 0.09090909090909091, 0.8181818181818182], [0.11538461538461539, 0.0, 0.8846153846153846], [0.36363636363636365, 0.0, 0.6363636363636364], [0.4, 0.0, 0.6], [0.0, 0.0, 1.0], [0.5714285714285714, 0.0, 0.42857142857142855], [0.0, 0.0, 1.0], [0.04878048780487805, 0.0, 0.9512195121951219], [0.025, 0.0, 0.975], [0.08333333333333333, 0.0, 0.9166666666666666], [0.1, 0.0, 0.9], [0.0, 0.0, 1.0], [0.3333333333333333, 0.0, 0.6666666666666666], [0.0, 0.0, 1.0], [0.0, 0.0, 1.0], [1.0, 0.0, 0.0], [0.0, 0.42857142857142855, 0.5714285714285714], [0.0, 0.0, 1.0], [0.0, 1.0, 0.0], [0.17218543046357615, 0.6357615894039735, 0.19205298013245034], [0.21929824561403508, 0.7017543859649122, 0.07894736842105263], [0.18556701030927836, 0.7216494845360825, 0.09278350515463918], [0.14606741573033707, 0.7865168539325843, 0.06741573033707865], [0.0, 0.9344262295081968, 0.06557377049180328], [0.0, 0.4, 0.6], [0.0, 0.9821428571428571, 0.017857142857142856], [0.0, 0.96, 0.04], [0.0, 1.0, 0.0], [0.0, 0.95, 0.05], [0.0, 1.0, 0.0], [0.4642857142857143, 0.4642857142857143, 0.07142857142857142], [0.4, 0.52, 0.08], [0.5263157894736842, 0.3684210526315789, 0.10526315789473684], [0.0, 1.0, 0.0], [0.625, 0.25, 0.125], [1.0, 0.0, 0.0], [0.4, 0.4, 0.2], [0.0, 1.0, 0.0], [1.0, 0.0, 0.0], [0.625, 0.0, 0.375], [1.0, 0.0, 0.0], [0.25, 0.0, 0.75], [0.4117647058823529, 0.5882352941176471, 0.0], [1.0, 0.0, 0.0], [0.23076923076923078, 0.7692307692307693, 0.0], [0.0, 1.0, 0.0], [1.0, 0.0, 0.0], [0.02702702702702703, 0.43243243243243246, 0.5405405405405406], [0.02857142857142857, 0.4, 0.5714285714285714], [0.029411764705882353, 0.38235294117647056, 0.5882352941176471], [0.1111111111111111, 0.4444444444444444, 0.4444444444444444], [0.0, 1.0, 0.0], [0.2, 0.0, 0.8], [0.0, 0.36, 0.64], [0.0, 0.42857142857142855, 0.5714285714285714], [0.0, 0.6923076923076923, 0.3076923076923077], [0.0, 0.0, 1.0], [0.0, 0.0, 1.0], [0.0, 1.0, 0.0], [0.0, 1.0, 0.0], [0.6016260162601627, 0.04065040650406504, 0.35772357723577236], [0.5164835164835165, 0.054945054945054944, 0.42857142857142855], [0.2777777777777778, 0.0, 0.7222222222222222], [1.0, 0.0, 0.0], [0.13333333333333333, 0.0, 0.8666666666666667], [0.08333333333333333, 0.0, 0.9166666666666666], [0.0, 0.0, 1.0], [0.3333333333333333, 0.0, 0.6666666666666666], [0.3333333333333333, 0.0, 0.6666666666666666], [0.5753424657534246, 0.0684931506849315, 0.3561643835616438], [0.4782608695652174, 0.0, 0.5217391304347826], [0.8888888888888888, 0.0, 0.1111111111111111], [1.0, 0.0, 0.0], [0.5, 0.0, 0.5], [0.21428571428571427, 0.0, 0.7857142857142857], [0.15384615384615385, 0.0, 0.8461538461538461], [0.2857142857142857, 0.0, 0.7142857142857143], [0.0, 0.0, 1.0], [1.0, 0.0, 0.0], [0.62, 0.1, 0.28], [0.7692307692307693, 0.0, 0.23076923076923078], [0.6, 0.0, 0.4], [0.8, 0.0, 0.2], [0.5333333333333333, 0.0, 0.4666666666666667], [0.6, 0.0, 0.4], [0.5, 0.0, 0.5], [1.0, 0.0, 0.0], [0.4444444444444444, 0.0, 0.5555555555555556], [0.2857142857142857, 0.0, 0.7142857142857143], [1.0, 0.0, 0.0], [0.9473684210526315, 0.0, 0.05263157894736842], [0.9, 0.0, 0.1], [0.8, 0.0, 0.2], [1.0, 0.0, 0.0], [0.5, 0.0, 0.5], [1.0, 0.0, 0.0], [1.0, 0.0, 0.0], [0.09090909090909091, 0.45454545454545453, 0.45454545454545453], [0.0, 0.5555555555555556, 0.4444444444444444], [0.5, 0.0, 0.5], [0.84375, 0.0, 0.15625], [1.0, 0.0, 0.0], [0.8275862068965517, 0.0, 0.1724137931034483], [0.5, 0.0, 0.5], [1.0, 0.0, 0.0], [0.2857142857142857, 0.0, 0.7142857142857143], [1.0, 0.0, 0.0]]}, {"children_left": [1, 2, 3, 4, -1, 6, 7, 8, 9, -1, -1, -1, 13, 14, -1, -1, -1, -1, 19, 20, -1, 22, -1, 24, -1, -1, -1, -1, 29, 30, 31, -1, 33, -1, 35, -1, -1, 38, 39, 40, 41, -1, -1, -1, -1, 46, -1, 48, -1, 50, 51, 52, 53, -1, -1, 56, -1, -1, -1, -1, 61, 62, 63, 64, 65, 66, 67, -1, -1, -1, 71, 72, -1, -1, -1, 76, 77, 78, 79, -1, -1, -1, -1, 84, -1, 86, -1, -1, 89, -1, -1, -1, 93, 94, 95, -1, -1, -1, 99, 100, 101, 102, 103, 104, -1, -1, -1, 108, 109, -1, -1, -1, -1, -1, 115, -1, -1], "children_right": [28, 27, 18, 5, -1, 17, 12, 11, 10, -1, -1, -1, 16, 15, -1, -1, -1, -1, 26, 21, -1, 23, -1, 25, -1, -1, -1, -1, 60, 37, 32, -1, 34, -1, 36, -1, -1, 45, 44, 43, 42, -1, -1, -1, -1, 47, -1, 49, -1, 59, 58, 55, 54, -1, -1, 57, -1, -1, -1, -1, 92, 91, 88, 75, 70, 69, 68, -1, -1, -1, 74, 73, -1, -1, -1, 83, 82, 81, 80, -1, -1, -1, -1, 85, -1, 87, -1, -1, 90, -1, -1, -1, 98, 97, 96, -1, -1, -1, 114, 113, 112, 107, 106, 105, -1, -1, -1, 111, 110, -1, -1, -1, -1, -1, 116, -1, -1], "feature": [0, 10, 18, 11, -2, 16, 19, 0, 0, -2, -2, -2, 1, 23, -2, -2, -2, -2, 24, 0, -2, 19, -2, 0, -2, -2, -2, -2, 23, 18, 19, -2, 0, -2, 15, -2, -2, 3, 12, 0, 8, -2, -2, -2, -2, 0, -2, 19, -2, 10, 2, 1, 15, -2, -2, 15, -2, -2, -2, -2, 0, 5, 1, 4, 17, 0, 0, -2, -2, -2, 14, 6, -2, -2, -2, 10, 21, 0, 7, -2, -2, -2, -2, 6, -2, 16, -2, -2, 3, -2, -2, -2, 6, 10, 22, -2, -2, -2, 12, 0, 15, 0, 8, 3, -2, -2, -2, 13, 14, -2, -2, -2, -2, -2, 2, -2, -2], "threshold": [1210.0, 0.5, 0.5, 0.5, -2.0, 0.5, 0.5, 975.0, 904.5, -2.0, -2.0, -2.0, 0.5, 0.5, -2.0, -2.0, -2.0, -2.0, 1.5, 1083.5, -2.0, 0.5, -2.0, 1163.5, -2.0, -2.0, -2.0, -2.0, 0.5, 0.5, 0.5, -2.0, 1583.0, -2.0, 0.5, -2.0, -2.0, 0.5, 0.5, 1733.0, 0.5, -2.0, -2.0, -2.0, -2.0, 1293.0, -2.0, 0.5, -2.0, 0.5, 0.5, 0.5, 0.5, -2.0, -2.0, 0.5, -2.0, -2.0, -2.0, -2.0, 1741.0, 0.5, 0.5, 0.5, 0.5, 1508.0, 1449.5, -2.0, -2.0, -2.0, 0.5, 0.5, -2.0, -2.0, -2.0, 0.5, 0.5, 1500.5, 0.5, -2.0, -2.0, -2.0, -2.0, 0.5, -2.0, 0.5, -2.0, -2.0, 0.5, -2.0, -2.0, -2.0, 0.5, 0.5, 0.5, -2.0, -2.0, -2.0, 0.5, 2452.0, 0.5, 1842.5, 0.5, 0.5, -2.0, -2.0, -2.0, 0.5, 0.5, -2.0, -2.0, -2.0, -2.0, -2.0, 0.5, -2.0, -2.0], "value": [[0.3405994550408719, 0.3787465940054496, 0.28065395095367845], [0.10476190476190476, 0.8095238095238095, 0.08571428571428572], [0.0891089108910891, 0.8415841584158416, 0.06930693069306931], [0.046153846153846156, 0.9076923076923077, 0.046153846153846156], [0.0, 1.0, 0.0], [0.05660377358490566, 0.8867924528301887, 0.05660377358490566], [0.061224489795918366, 0.8775510204081632, 0.061224489795918366], [0.0, 0.8888888888888888, 0.1111111111111111], [0.0, 0.8636363636363636, 0.13636363636363635], [0.0, 0.8333333333333334, 0.16666666666666666], [0.0, 0.9, 0.1], [0.0, 1.0, 0.0], [0.13636363636363635, 0.8636363636363636, 0.0], [0.16666666666666666, 0.8333333333333334, 0.0], [0.375, 0.625, 0.0], [0.0, 1.0, 0.0], [0.0, 1.0, 0.0], [0.0, 1.0, 0.0], [0.16666666666666666, 0.7222222222222222, 0.1111111111111111], [0.19047619047619047, 0.6666666666666666, 0.14285714285714285], [0.0, 0.0, 1.0], [0.2222222222222222, 0.7777777777777778, 0.0], [1.0, 0.0, 0.0], [0.17647058823529413, 0.8235294117647058, 0.0], [0.375, 0.625, 0.0], [0.0, 1.0, 0.0], [0.13333333333333333, 0.8, 0.06666666666666667], [0.5, 0.0, 0.5], [0.4351145038167939, 0.20610687022900764, 0.35877862595419846], [0.4155844155844156, 0.4155844155844156, 0.16883116883116883], [0.14705882352941177, 0.8529411764705882, 0.0], [0.0, 1.0, 0.0], [0.35714285714285715, 0.6428571428571429, 0.0], [1.0, 0.0, 0.0], [0.25, 0.75, 0.0], [0.1, 0.9, 0.0], [1.0, 0.0, 0.0], [0.627906976744186, 0.06976744186046512, 0.3023255813953488], [0.38461538461538464, 0.0, 0.6153846153846154], [0.5, 0.0, 0.5], [0.2857142857142857, 0.0, 0.7142857142857143], [0.25, 0.0, 0.75], [0.3333333333333333, 0.0, 0.6666666666666666], [1.0, 0.0, 0.0], [0.0, 0.0, 1.0], [0.7333333333333333, 0.1, 0.16666666666666666], [0.0, 0.0, 1.0], [0.8148148148148148, 0.1111111111111111, 0.07407407407407407], [0.0, 1.0, 0.0], [0.8461538461538461, 0.07692307692307693, 0.07692307692307693], [0.8333333333333334, 0.08333333333333333, 0.08333333333333333], [0.8260869565217391, 0.08695652173913043, 0.08695652173913043], [0.6666666666666666, 0.3333333333333333, 0.0], [0.5, 0.5, 0.0], [1.0, 0.0, 0.0], [0.8823529411764706, 0.0, 0.11764705882352941], [0.75, 0.0, 0.25], [1.0, 0.0, 0.0], [1.0, 0.0, 0.0], [1.0, 0.0, 0.0], [0.44324324324324327, 0.11891891891891893, 0.43783783783783786], [0.22549019607843138, 0.19607843137254902, 0.5784313725490197], [0.22340425531914893, 0.1595744680851064, 0.6170212765957447], [0.1724137931034483, 0.1724137931034483, 0.6551724137931034], [0.10416666666666667, 0.08333333333333333, 0.8125], [0.12121212121212122, 0.0, 0.8787878787878788], [0.23529411764705882, 0.0, 0.7647058823529411], [0.0, 0.0, 1.0], [1.0, 0.0, 0.0], [0.0, 0.0, 1.0], [0.06666666666666667, 0.26666666666666666, 0.6666666666666666], [0.0, 0.3076923076923077, 0.6923076923076923], [0.0, 0.36363636363636365, 0.6363636363636364], [0.0, 0.0, 1.0], [0.5, 0.0, 0.5], [0.2564102564102564, 0.28205128205128205, 0.46153846153846156], [0.21428571428571427, 0.17857142857142858, 0.6071428571428571], [0.18181818181818182, 0.22727272727272727, 0.5909090909090909], [0.13333333333333333, 0.0, 0.8666666666666667], [0.1, 0.0, 0.9], [0.2, 0.0, 0.8], [0.2857142857142857, 0.7142857142857143, 0.0], [0.3333333333333333, 0.0, 0.6666666666666666], [0.36363636363636365, 0.5454545454545454, 0.09090909090909091], [0.0, 1.0, 0.0], [0.8, 0.0, 0.2], [0.0, 0.0, 1.0], [1.0, 0.0, 0.0], [0.8571428571428571, 0.0, 0.14285714285714285], [0.5, 0.0, 0.5], [1.0, 0.0, 0.0], [0.25, 0.625, 0.125], [0.7108433734939759, 0.024096385542168676, 0.26506024096385544], [0.2727272727272727, 0.0, 0.7272727272727273], [0.1111111111111111, 0.0, 0.8888888888888888], [0.3333333333333333, 0.0, 0.6666666666666666], [0.0, 0.0, 1.0], [1.0, 0.0, 0.0], [0.7777777777777778, 0.027777777777777776, 0.19444444444444445], [0.8571428571428571, 0.0, 0.14285714285714285], [0.8983050847457628, 0.0, 0.1016949152542373], [0.8823529411764706, 0.0, 0.11764705882352941], [0.7333333333333333, 0.0, 0.26666666666666666], [0.6666666666666666, 0.0, 0.3333333333333333], [1.0, 0.0, 0.0], [0.6, 0.0, 0.4], [1.0, 0.0, 0.0], [0.9444444444444444, 0.0, 0.05555555555555555], [0.9090909090909091, 0.0, 0.09090909090909091], [0.8333333333333334, 0.0, 0.16666666666666666], [1.0, 0.0, 0.0], [1.0, 0.0, 0.0], [1.0, 0.0, 0.0], [0.25, 0.0, 0.75], [0.2222222222222222, 0.2222222222222222, 0.5555555555555556], [0.16666666666666666, 0.3333333333333333, 0.5], [0.3333333333333333, 0.0, 0.6666666666666666]]}, {"children_left": [1, 2, 3, -1, -1, 6, 7, 8, 9, -1, -1, -1, -1, 14, 15, 16, -1, 18, -1, -1, -1, 22, 23, -1, -1, -1, 27, 28, 29, 30, 31, 32, 33, -1, 35, 36, -1, -1, -1, -1, -1, 42, -1, 44, -1, -1, 47, 48, 49, 50, -1, -1, -1, 54, 55, -1, -1, 58, -1, 60, 61, -1, -1, -1, -1, 66, 67, 68, 69, -1, -1, 72, -1, 74, 75, -1, -1, -1, -1, -1, 81, 82, 83, 84, 85, 86, -1, -1, 89, 90, -1, 92, -1, -1, -1, 96, -1, 98, 99, 100, -1, -1, -1, -1, 105, 106, -1, -1, -1, 110, -1, -1, -1], "children_right": [26, 5, 4, -1, -1, 13, 12, 11, 10, -1, -1, -1, -1, 21, 20, 17, -1, 19, -1, -1, -1, 25, 24, -1, -1, -1, 80, 65, 46, 41, 40, 39, 34, -1, 38, 37, -1, -1, -1, -1, -1, 43, -1, 45, -1, -1, 64, 53, 52, 51, -1, -1, -1, 57, 56, -1, -1, 59, -1, 63, 62, -1, -1, -1, -1, 79, 78, 71, 70, -1, -1, 73, -1, 77, 76, -1, -1, -1, -1, -1, 112, 109, 104, 95, 88, 87, -1, -1, 94, 91, -1, 93, -1, -1, -1, 97, -1, 103, 102, 101, -1, -1, -1, -1, 108, 107, -1, -1, -1, 111, -1, -1, -1], "feature": [0, 4, 0, -2, -2, 19, 18, 0, 0, -2, -2, -2, -2, 23, 1, 18, -2, 0, -2, -2, -2, 17, 16, -2, -2, -2, 6, 22, 4, 24, 15, 1, 18, -2, 8, 0, -2, -2, -2, -2, -2, 11, -2, 0, -2, -2, 24, 18, 15, 19, -2, -2, -2, 1, 0, -2, -2, 11, -2, 15, 19, -2, -2, -2, -2, 14, 5, 3, 0, -2, -2, 17, -2, 21, 0, -2, -2, -2, -2, -2, 12, 13, 2, 22, 4, 15, -2, -2, 0, 8, -2, 16, -2, -2, -2, 17, -2, 0, 8, 0, -2, -2, -2, -2, 15, 3, -2, -2, -2, 0, -2, -2, -2], "threshold": [1210.0, 0.5, 1105.0, -2.0, -2.0, 0.5, 0.5, 1055.0, 904.5, -2.0, -2.0, -2.0, -2.0, 0.5, 0.5, 0.5, -2.0, 1157.0, -2.0, -2.0, -2.0, 0.5, 0.5, -2.0, -2.0, -2.0, 0.5, 0.5, 0.5, 1.5, 0.5, 0.5, 0.5, -2.0, 0.5, 1254.0, -2.0, -2.0, -2.0, -2.0, -2.0, 0.5, -2.0, 1578.5, -2.0, -2.0, 1.5, 0.5, 0.5, 0.5, -2.0, -2.0, -2.0, 0.5, 1276.0, -2.0, -2.0, 0.5, -2.0, 0.5, 0.5, -2.0, -2.0, -2.0, -2.0, 0.5, 0.5, 0.5, 1469.0, -2.0, -2.0, 0.5, -2.0, 0.5, 1675.5, -2.0, -2.0, -2.0, -2.0, -2.0, 0.5, 0.5, 0.5, 0.5, 0.5, 0.5, -2.0, -2.0, 1795.0, 0.5, -2.0, 0.5, -2.0, -2.0, -2.0, 0.5, -2.0, 2067.5, 0.5, 1525.0, -2.0, -2.0, -2.0, -2.0, 0.5, 0.5, -2.0, -2.0, -2.0, 1418.0, -2.0, -2.0, -2.0], "value": [[0.34877384196185285, 0.31607629427792916, 0.335149863760218], [0.11392405063291139, 0.7721518987341772, 0.11392405063291139], [0.18181818181818182, 0.6363636363636364, 0.18181818181818182], [0.0, 0.7777777777777778, 0.2222222222222222], [1.0, 0.0, 0.0], [0.10294117647058823, 0.7941176470588235, 0.10294117647058823], [0.10344827586206896, 0.6896551724137931, 0.20689655172413793], [0.07142857142857142, 0.7142857142857143, 0.21428571428571427], [0.0, 0.7692307692307693, 0.23076923076923078], [0.0, 0.6153846153846154, 0.38461538461538464], [0.0, 0.9230769230769231, 0.07692307692307693], [1.0, 0.0, 0.0], [1.0, 0.0, 0.0], [0.10256410256410256, 0.8717948717948718, 0.02564102564102564], [0.21428571428571427, 0.7857142857142857, 0.0], [0.25, 0.75, 0.0], [0.5, 0.5, 0.0], [0.2, 0.8, 0.0], [0.6666666666666666, 0.3333333333333333, 0.0], [0.0, 1.0, 0.0], [0.0, 1.0, 0.0], [0.04, 0.92, 0.04], [0.047619047619047616, 0.9523809523809523, 0.0], [0.0, 1.0, 0.0], [0.14285714285714285, 0.8571428571428571, 0.0], [0.0, 0.75, 0.25], [0.4131944444444444, 0.1909722222222222, 0.3958333333333333], [0.2229299363057325, 0.31210191082802546, 0.46496815286624205], [0.3017241379310345, 0.3103448275862069, 0.3879310344827586], [0.13793103448275862, 0.15517241379310345, 0.7068965517241379], [0.21212121212121213, 0.2727272727272727, 0.5151515151515151], [0.16129032258064516, 0.2903225806451613, 0.5483870967741935], [0.17857142857142858, 0.32142857142857145, 0.5], [0.0, 1.0, 0.0], [0.2631578947368421, 0.0, 0.7368421052631579], [0.13333333333333333, 0.0, 0.8666666666666667], [0.3333333333333333, 0.0, 0.6666666666666666], [0.0, 0.0, 1.0], [0.75, 0.0, 0.25], [0.0, 0.0, 1.0], [1.0, 0.0, 0.0], [0.04, 0.0, 0.96], [0.0, 0.0, 1.0], [0.043478260869565216, 0.0, 0.9565217391304348], [0.0, 0.0, 1.0], [0.16666666666666666, 0.0, 0.8333333333333334], [0.46551724137931033, 0.46551724137931033, 0.06896551724137931], [0.4339622641509434, 0.5094339622641509, 0.05660377358490566], [0.08695652173913043, 0.9130434782608695, 0.0], [0.05555555555555555, 0.9444444444444444, 0.0], [0.0, 1.0, 0.0], [0.09090909090909091, 0.9090909090909091, 0.0], [0.2, 0.8, 0.0], [0.7, 0.2, 0.1], [0.8333333333333334, 0.0, 0.16666666666666666], [0.3333333333333333, 0.0, 0.6666666666666666], [1.0, 0.0, 0.0], [0.6111111111111112, 0.3333333333333333, 0.05555555555555555], [0.0, 1.0, 0.0], [0.9166666666666666, 0.0, 0.08333333333333333], [0.8, 0.0, 0.2], [1.0, 0.0, 0.0], [0.75, 0.0, 0.25], [1.0, 0.0, 0.0], [0.8, 0.0, 0.2], [0.0, 0.3170731707317073, 0.6829268292682927], [0.0, 0.2631578947368421, 0.7368421052631579], [0.0, 0.125, 0.875], [0.0, 0.08333333333333333, 0.9166666666666666], [0.0, 0.0, 1.0], [0.0, 1.0, 0.0], [0.0, 0.15, 0.85], [0.0, 0.0, 1.0], [0.0, 0.16666666666666666, 0.8333333333333334], [0.0, 0.17647058823529413, 0.8235294117647058], [0.0, 0.3333333333333333, 0.6666666666666666], [0.0, 0.0, 1.0], [0.0, 0.0, 1.0], [0.0, 1.0, 0.0], [0.0, 1.0, 0.0], [0.6412213740458015, 0.04580152671755725, 0.31297709923664124], [0.6916666666666667, 0.0, 0.30833333333333335], [0.660377358490566, 0.0, 0.33962264150943394], [0.6559139784946236, 0.0, 0.34408602150537637], [0.9, 0.0, 0.1], [0.9166666666666666, 0.0, 0.08333333333333333], [1.0, 0.0, 0.0], [0.5, 0.0, 0.5], [0.8888888888888888, 0.0, 0.1111111111111111], [0.9333333333333333, 0.0, 0.06666666666666667], [1.0, 0.0, 0.0], [0.8571428571428571, 0.0, 0.14285714285714285], [0.0, 0.0, 1.0], [1.0, 0.0, 0.0], [0.6666666666666666, 0.0, 0.3333333333333333], [0.5396825396825397, 0.0, 0.4603174603174603], [1.0, 0.0, 0.0], [0.532258064516129, 0.0, 0.46774193548387094], [0.3695652173913043, 0.0, 0.6304347826086957], [0.17142857142857143, 0.0, 0.8285714285714286], [0.0, 0.0, 1.0], [0.3333333333333333, 0.0, 0.6666666666666666], [1.0, 0.0, 0.0], [1.0, 0.0, 0.0], [0.6923076923076923, 0.0, 0.3076923076923077], [0.8, 0.0, 0.2], [0.3333333333333333, 0.0, 0.6666666666666666], [1.0, 0.0, 0.0], [0.3333333333333333, 0.0, 0.6666666666666666], [0.9285714285714286, 0.0, 0.07142857142857142], [0.6666666666666666, 0.0, 0.3333333333333333], [1.0, 0.0, 0.0], [0.09090909090909091, 0.5454545454545454, 0.36363636363636365]]}, {"children_left": [1, 2, -1, 4, 5, 6, 7, 8, -1, 10, 11, 12, -1, -1, -1, -1, -1, -1, -1, -1, 21, 22, 23, 24, 25, 26, 27, 28, 29, -1, -1, 32, -1, -1, -1, -1, 37, -1, -1, 40, -1, -1, 43, 44, 45, -1, -1, -1, -1, -1, 51, 52, 53, 54, 55, -1, -1, -1, -1, 60, 61, -1, 63, -1, 65, 66, 67, -1, -1, 70, -1, -1, 73, 74, -1, -1, -1, 78, -1, 80, 81, 82, -1, 84, -1, -1, 87, -1, -1, -1, 91, 92, 93, -1, -1, 96, -1, -1, 99, 100, 101, -1, -1, -1, 105, -1, -1], "children_right": [20, 3, -1, 19, 18, 17, 16, 9, -1, 15, 14, 13, -1, -1, -1, -1, -1, -1, -1, -1, 50, 49, 42, 39, 36, 35, 34, 31, 30, -1, -1, 33, -1, -1, -1, -1, 38, -1, -1, 41, -1, -1, 48, 47, 46, -1, -1, -1, -1, -1, 90, 59, 58, 57, 56, -1, -1, -1, -1, 77, 62, -1, 64, -1, 72, 69, 68, -1, -1, 71, -1, -1, 76, 75, -1, -1, -1, 79, -1, 89, 86, 83, -1, 85, -1, -1, 88, -1, -1, -1, 98, 95, 94, -1, -1, 97, -1, -1, 104, 103, 102, -1, -1, -1, 106, -1, -1], "feature": [18, 0, -2, 10, 24, 0, 1, 4, -2, 15, 19, 0, -2, -2, -2, -2, -2, -2, -2, -2, 4, 13, 10, 7, 22, 15, 1, 23, 0, -2, -2, 6, -2, -2, -2, -2, 1, -2, -2, 14, -2, -2, 14, 6, 24, -2, -2, -2, -2, -2, 21, 0, 17, 20, 0, -2, -2, -2, -2, 22, 11, -2, 0, -2, 1, 24, 15, -2, -2, 15, -2, -2, 24, 0, -2, -2, -2, 17, -2, 14, 6, 0, -2, 0, -2, -2, 0, -2, -2, -2, 0, 0, 8, -2, -2, 8, -2, -2, 1, 14, 6, -2, -2, -2, 12, -2, -2], "threshold": [0.5, 860.0, -2.0, 0.5, 1.5, 1625.5, 0.5, 0.5, -2.0, 0.5, 0.5, 975.0, -2.0, -2.0, -2.0, -2.0, -2.0, -2.0, -2.0, -2.0, 0.5, 0.5, 0.5, 0.5, 0.5, 0.5, 0.5, 0.5, 1224.0, -2.0, -2.0, 0.5, -2.0, -2.0, -2.0, -2.0, 0.5, -2.0, -2.0, 0.5, -2.0, -2.0, 0.5, 0.5, 1.5, -2.0, -2.0, -2.0, -2.0, -2.0, 0.5, 1239.0, 0.5, 0.5, 1163.5, -2.0, -2.0, -2.0, -2.0, 0.5, 0.5, -2.0, 1255.0, -2.0, 0.5, 1.5, 0.5, -2.0, -2.0, 0.5, -2.0, -2.0, 1.5, 1889.5, -2.0, -2.0, -2.0, 0.5, -2.0, 0.5, 0.5, 1418.0, -2.0, 1675.5, -2.0, -2.0, 2241.0, -2.0, -2.0, -2.0, 1793.5, 1599.5, 0.5, -2.0, -2.0, 0.5, -2.0, -2.0, 0.5, 0.5, 0.5, -2.0, -2.0, -2.0, 0.5, -2.0, -2.0], "value": [[0.34332425068119893, 0.3678474114441417, 0.2888283378746594], [0.047058823529411764, 0.9058823529411765, 0.047058823529411764], [0.0, 0.75, 0.25], [0.05194805194805195, 0.922077922077922, 0.025974025974025976], [0.04, 0.9466666666666667, 0.013333333333333334], [0.05454545454545454, 0.9272727272727272, 0.01818181818181818], [0.02127659574468085, 0.9574468085106383, 0.02127659574468085], [0.022727272727272728, 0.9545454545454546, 0.022727272727272728], [0.0, 1.0, 0.0], [0.02631578947368421, 0.9473684210526315, 0.02631578947368421], [0.0, 0.972972972972973, 0.02702702702702703], [0.0, 0.96, 0.04], [0.0, 0.9230769230769231, 0.07692307692307693], [0.0, 1.0, 0.0], [0.0, 1.0, 0.0], [1.0, 0.0, 0.0], [0.0, 1.0, 0.0], [0.25, 0.75, 0.0], [0.0, 1.0, 0.0], [0.5, 0.0, 0.5], [0.4326241134751773, 0.20567375886524822, 0.3617021276595745], [0.21333333333333335, 0.06666666666666667, 0.72], [0.18055555555555555, 0.06944444444444445, 0.75], [0.10909090909090909, 0.09090909090909091, 0.8], [0.043478260869565216, 0.10869565217391304, 0.8478260869565217], [0.05714285714285714, 0.0, 0.9428571428571428], [0.06896551724137931, 0.0, 0.9310344827586207], [0.07692307692307693, 0.0, 0.9230769230769231], [0.07142857142857142, 0.0, 0.9285714285714286], [0.14285714285714285, 0.0, 0.8571428571428571], [0.0, 0.0, 1.0], [0.08333333333333333, 0.0, 0.9166666666666666], [0.0, 0.0, 1.0], [1.0, 0.0, 0.0], [0.0, 0.0, 1.0], [0.0, 0.0, 1.0], [0.0, 0.45454545454545453, 0.5454545454545454], [0.0, 0.5, 0.5], [0.0, 0.0, 1.0], [0.4444444444444444, 0.0, 0.5555555555555556], [0.6666666666666666, 0.0, 0.3333333333333333], [0.0, 0.0, 1.0], [0.4117647058823529, 0.0, 0.5882352941176471], [0.2857142857142857, 0.0, 0.7142857142857143], [0.16666666666666666, 0.0, 0.8333333333333334], [0.5, 0.0, 0.5], [0.0, 0.0, 1.0], [1.0, 0.0, 0.0], [1.0, 0.0, 0.0], [1.0, 0.0, 0.0], [0.5120772946859904, 0.2560386473429952, 0.2318840579710145], [0.46875, 0.33125, 0.2], [0.10810810810810811, 0.8918918918918919, 0.0], [0.18181818181818182, 0.8181818181818182, 0.0], [0.125, 0.875, 0.0], [0.25, 0.75, 0.0], [0.0, 1.0, 0.0], [0.3333333333333333, 0.6666666666666666, 0.0], [0.0, 1.0, 0.0], [0.5772357723577236, 0.16260162601626016, 0.2601626016260163], [0.7738095238095238, 0.10714285714285714, 0.11904761904761904], [0.16666666666666666, 0.8333333333333334, 0.0], [0.8205128205128205, 0.05128205128205128, 0.1282051282051282], [0.0, 0.0, 1.0], [0.8311688311688312, 0.05194805194805195, 0.11688311688311688], [0.7959183673469388, 0.08163265306122448, 0.12244897959183673], [0.8181818181818182, 0.18181818181818182, 0.0], [0.7647058823529411, 0.23529411764705882, 0.0], [1.0, 0.0, 0.0], [0.7777777777777778, 0.0, 0.2222222222222222], [0.7916666666666666, 0.0, 0.20833333333333334], [0.6666666666666666, 0.0, 0.3333333333333333], [0.8928571428571429, 0.0, 0.10714285714285714], [0.8333333333333334, 0.0, 0.16666666666666666], [1.0, 0.0, 0.0], [0.25, 0.0, 0.75], [1.0, 0.0, 0.0], [0.15384615384615385, 0.28205128205128205, 0.5641025641025641], [0.0, 0.0, 1.0], [0.15789473684210525, 0.2894736842105263, 0.5526315789473685], [0.0, 0.3548387096774194, 0.6451612903225806], [0.0, 0.4, 0.6], [0.0, 1.0, 0.0], [0.0, 0.25, 0.75], [0.0, 0.4444444444444444, 0.5555555555555556], [0.0, 0.0, 1.0], [0.0, 0.2727272727272727, 0.7272727272727273], [0.0, 0.0, 1.0], [0.0, 1.0, 0.0], [0.8571428571428571, 0.0, 0.14285714285714285], [0.6595744680851063, 0.0, 0.3404255319148936], [0.3, 0.0, 0.7], [0.1, 0.0, 0.9], [0.14285714285714285, 0.0, 0.8571428571428571], [0.0, 0.0, 1.0], [0.5, 0.0, 0.5], [0.375, 0.0, 0.625], [1.0, 0.0, 0.0], [0.9259259259259259, 0.0, 0.07407407407407407], [0.9444444444444444, 0.0, 0.05555555555555555], [0.8571428571428571, 0.0, 0.14285714285714285], [0.0, 0.0, 1.0], [1.0, 0.0, 0.0], [1.0, 0.0, 0.0], [0.8888888888888888, 0.0, 0.1111111111111111], [1.0, 0.0, 0.0], [0.6666666666666666, 0.0, 0.3333333333333333]]}, {"children_left": [1, 2, 3, 4, -1, -1, 7, 8, 9, -1, 11, -1, -1, -1, 15, -1, 17, 18, -1, -1, -1, -1, 23, 24, -1, 26, 27, 28, -1, -1, -1, -1, 33, 34, 35, 36, -1, -1, 39, 40, 41, 42, -1, 44, -1, -1, -1, -1, 49, 50, 51, -1, 53, -1, -1, -1, -1, 58, 59, 60, 61, -1, -1, 64, 65, -1, -1, 68, 69, -1, -1, -1, 73, -1, -1, 76, 77, 78, -1, 80, -1, -1, -1, 84, 85, -1, -1, -1, 89, 90, -1, 92, -1, -1, 95, -1, 97, 98, 99, 100, -1, -1, -1, -1, 105, 106, 107, -1, -1, -1, -1], "children_right": [22, 21, 6, 5, -1, -1, 14, 13, 10, -1, 12, -1, -1, -1, 16, -1, 20, 19, -1, -1, -1, -1, 32, 25, -1, 31, 30, 29, -1, -1, -1, -1, 88, 57, 38, 37, -1, -1, 48, 47, 46, 43, -1, 45, -1, -1, -1, -1, 56, 55, 52, -1, 54, -1, -1, -1, -1, 75, 72, 63, 62, -1, -1, 67, 66, -1, -1, 71, 70, -1, -1, -1, 74, -1, -1, 83, 82, 79, -1, 81, -1, -1, -1, 87, 86, -1, -1, -1, 94, 91, -1, 93, -1, -1, 96, -1, 104, 103, 102, 101, -1, -1, -1, -1, 110, 109, 108, -1, -1, -1, -1], "feature": [18, 24, 3, 15, -2, -2, 0, 19, 0, -2, 0, -2, -2, -2, 11, -2, 15, 19, -2, -2, -2, -2, 0, 3, -2, 8, 23, 0, -2, -2, -2, -2, 0, 6, 0, 10, -2, -2, 23, 12, 8, 4, -2, 11, -2, -2, -2, -2, 10, 1, 0, -2, 24, -2, -2, -2, -2, 14, 5, 7, 3, -2, -2, 0, 0, -2, -2, 21, 0, -2, -2, -2, 21, -2, -2, 21, 8, 0, -2, 2, -2, -2, -2, 1, 13, -2, -2, -2, 6, 23, -2, 4, -2, -2, 17, -2, 14, 0, 5, 0, -2, -2, -2, -2, 5, 7, 2, -2, -2, -2, -2], "threshold": [0.5, 1.5, 0.5, 0.5, -2.0, -2.0, 1055.0, 0.5, 877.0, -2.0, 975.0, -2.0, -2.0, -2.0, 0.5, -2.0, 0.5, 0.5, -2.0, -2.0, -2.0, -2.0, 1190.0, 0.5, -2.0, 0.5, 0.5, 1157.0, -2.0, -2.0, -2.0, -2.0, 1908.0, 0.5, 1236.0, 0.5, -2.0, -2.0, 0.5, 0.5, 0.5, 0.5, -2.0, 0.5, -2.0, -2.0, -2.0, -2.0, 0.5, 0.5, 1300.0, -2.0, 2.5, -2.0, -2.0, -2.0, -2.0, 0.5, 0.5, 0.5, 0.5, -2.0, -2.0, 1594.5, 1278.0, -2.0, -2.0, 0.5, 1631.0, -2.0, -2.0, -2.0, 0.5, -2.0, -2.0, 0.5, 0.5, 1492.5, -2.0, 0.5, -2.0, -2.0, -2.0, 0.5, 0.5, -2.0, -2.0, -2.0, 0.5, 0.5, -2.0, 0.5, -2.0, -2.0, 0.5, -2.0, 0.5, 2383.5, 0.5, 2120.0, -2.0, -2.0, -2.0, -2.0, 0.5, 0.5, 0.5, -2.0, -2.0, -2.0, -2.0], "value": [[0.3923705722070845, 0.3106267029972752, 0.2970027247956403], [0.0875, 0.8375, 0.075], [0.11666666666666667, 0.7833333333333333, 0.1], [0.125, 0.625, 0.25], [0.0, 0.7142857142857143, 0.2857142857142857], [1.0, 0.0, 0.0], [0.11363636363636363, 0.8409090909090909, 0.045454545454545456], [0.0, 0.9166666666666666, 0.08333333333333333], [0.0, 0.8823529411764706, 0.11764705882352941], [0.0, 1.0, 0.0], [0.0, 0.8571428571428571, 0.14285714285714285], [0.0, 0.8181818181818182, 0.18181818181818182], [0.0, 1.0, 0.0], [0.0, 1.0, 0.0], [0.25, 0.75, 0.0], [0.0, 1.0, 0.0], [0.35714285714285715, 0.6428571428571429, 0.0], [0.25, 0.75, 0.0], [1.0, 0.0, 0.0], [0.18181818181818182, 0.8181818181818182, 0.0], [1.0, 0.0, 0.0], [0.0, 1.0, 0.0], [0.47735191637630664, 0.16376306620209058, 0.3588850174216028], [0.16666666666666666, 0.6666666666666666, 0.16666666666666666], [0.0, 0.0, 1.0], [0.1875, 0.75, 0.0625], [0.13333333333333333, 0.8, 0.06666666666666667], [0.10526315789473684, 0.8947368421052632, 0.0], [0.2, 0.8, 0.0], [0.0, 1.0, 0.0], [0.18181818181818182, 0.6363636363636364, 0.18181818181818182], [1.0, 0.0, 0.0], [0.5219123505976095, 0.09163346613545817, 0.38645418326693226], [0.41566265060240964, 0.12048192771084337, 0.463855421686747], [0.3076923076923077, 0.21978021978021978, 0.4725274725274725], [0.1, 0.0, 0.9], [0.1111111111111111, 0.0, 0.8888888888888888], [0.0, 0.0, 1.0], [0.3333333333333333, 0.24691358024691357, 0.41975308641975306], [0.5365853658536586, 0.17073170731707318, 0.2926829268292683], [0.6285714285714286, 0.2, 0.17142857142857143], [0.625, 0.21875, 0.15625], [0.4, 0.0, 0.6], [0.6666666666666666, 0.25925925925925924, 0.07407407407407407], [0.0, 1.0, 0.0], [0.72, 0.2, 0.08], [0.6666666666666666, 0.0, 0.3333333333333333], [0.0, 0.0, 1.0], [0.125, 0.325, 0.55], [0.15625, 0.1875, 0.65625], [0.13333333333333333, 0.2, 0.6666666666666666], [1.0, 0.0, 0.0], [0.07142857142857142, 0.21428571428571427, 0.7142857142857143], [0.0, 0.0, 1.0], [0.08333333333333333, 0.25, 0.6666666666666666], [0.5, 0.0, 0.5], [0.0, 0.875, 0.125], [0.5466666666666666, 0.0, 0.4533333333333333], [0.4897959183673469, 0.0, 0.5102040816326531], [0.475, 0.0, 0.525], [0.2222222222222222, 0.0, 0.7777777777777778], [0.5, 0.0, 0.5], [0.14285714285714285, 0.0, 0.8571428571428571], [0.5483870967741935, 0.0, 0.45161290322580644], [0.75, 0.0, 0.25], [0.2, 0.0, 0.8], [1.0, 0.0, 0.0], [0.3333333333333333, 0.0, 0.6666666666666666], [0.23076923076923078, 0.0, 0.7692307692307693], [0.0, 0.0, 1.0], [0.42857142857142855, 0.0, 0.5714285714285714], [1.0, 0.0, 0.0], [0.5555555555555556, 0.0, 0.4444444444444444], [1.0, 0.0, 0.0], [0.3333333333333333, 0.0, 0.6666666666666666], [0.6538461538461539, 0.0, 0.34615384615384615], [0.8125, 0.0, 0.1875], [0.6666666666666666, 0.0, 0.3333333333333333], [0.3333333333333333, 0.0, 0.6666666666666666], [0.8333333333333334, 0.0, 0.16666666666666666], [1.0, 0.0, 0.0], [0.5, 0.0, 0.5], [1.0, 0.0, 0.0], [0.4, 0.0, 0.6], [0.6, 0.0, 0.4], [0.5, 0.0, 0.5], [1.0, 0.0, 0.0], [0.2, 0.0, 0.8], [0.7294117647058823, 0.03529411764705882, 0.23529411764705882], [0.38095238095238093, 0.0, 0.6190476190476191], [1.0, 0.0, 0.0], [0.13333333333333333, 0.0, 0.8666666666666667], [0.6666666666666666, 0.0, 0.3333333333333333], [0.0, 0.0, 1.0], [0.84375, 0.046875, 0.109375], [1.0, 0.0, 0.0], [0.7674418604651163, 0.06976744186046512, 0.16279069767441862], [0.4166666666666667, 0.25, 0.3333333333333333], [0.8333333333333334, 0.0, 0.16666666666666666], [0.8, 0.0, 0.2], [0.5, 0.0, 0.5], [1.0, 0.0, 0.0], [1.0, 0.0, 0.0], [0.0, 0.5, 0.5], [0.9032258064516129, 0.0, 0.0967741935483871], [0.896551724137931, 0.0, 0.10344827586206896], [0.9285714285714286, 0.0, 0.07142857142857142], [1.0, 0.0, 0.0], [0.5, 0.0, 0.5], [0.0, 0.0, 1.0], [1.0, 0.0, 0.0]]}, {"children_left": [1, 2, -1, 4, 5, 6, -1, 8, 9, 10, 11, -1, -1, -1, 15, 16, -1, 18, -1, -1, -1, 22, 23, -1, -1, -1, -1, 28, 29, -1, -1, -1, 33, 34, 35, 36, 37, 38, 39, 40, -1, -1, -1, -1, 45, 46, -1, -1, 49, 50, -1, 52, -1, -1, -1, -1, -1, 58, 59, 60, 61, -1, -1, -1, 65, 66, -1, 68, 69, -1, -1, -1, -1, -1, 75, 76, 77, -1, -1, 80, 81, -1, -1, -1, 85, 86, 87, 88, 89, 90, 91, -1, -1, 94, -1, -1, 97, -1, -1, -1, -1, 102, -1, -1, -1], "children_right": [32, 3, -1, 27, 26, 7, -1, 21, 14, 13, 12, -1, -1, -1, 20, 17, -1, 19, -1, -1, -1, 25, 24, -1, -1, -1, -1, 31, 30, -1, -1, -1, 74, 57, 56, 55, 44, 43, 42, 41, -1, -1, -1, -1, 48, 47, -1, -1, 54, 51, -1, 53, -1, -1, -1, -1, -1, 73, 64, 63, 62, -1, -1, -1, 72, 67, -1, 71, 70, -1, -1, -1, -1, -1, 84, 79, 78, -1, -1, 83, 82, -1, -1, -1, 104, 101, 100, 99, 96, 93, 92, -1, -1, 95, -1, -1, 98, -1, -1, -1, -1, 103, -1, -1, -1], "feature": [3, 11, -2, 21, 0, 18, -2, 8, 0, 24, 0, -2, -2, -2, 17, 20, -2, 15, -2, -2, -2, 17, 7, -2, -2, -2, -2, 12, 13, -2, -2, -2, 6, 20, 24, 12, 0, 18, 19, 0, -2, -2, -2, -2, 11, 18, -2, -2, 15, 18, -2, 0, -2, -2, -2, -2, -2, 10, 22, 24, 0, -2, -2, -2, 1, 17, -2, 21, 0, -2, -2, -2, -2, -2, 0, 21, 7, -2, -2, 7, 15, -2, -2, -2, 13, 0, 5, 2, 8, 21, 0, -2, -2, 10, -2, -2, 0, -2, -2, -2, -2, 5, -2, -2, -2], "threshold": [0.5, 0.5, -2.0, 0.5, 2069.5, 0.5, -2.0, 0.5, 1441.5, 2.0, 1171.0, -2.0, -2.0, -2.0, 0.5, 0.5, -2.0, 0.5, -2.0, -2.0, -2.0, 0.5, 0.5, -2.0, -2.0, -2.0, -2.0, 0.5, 0.5, -2.0, -2.0, -2.0, 0.5, 0.5, 1.5, 0.5, 1222.0, 0.5, 0.5, 904.5, -2.0, -2.0, -2.0, -2.0, 0.5, 0.5, -2.0, -2.0, 0.5, 0.5, -2.0, 1276.0, -2.0, -2.0, -2.0, -2.0, -2.0, 0.5, 0.5, 2.5, 1111.5, -2.0, -2.0, -2.0, 0.5, 0.5, -2.0, 0.5, 1828.0, -2.0, -2.0, -2.0, -2.0, -2.0, 1565.0, 0.5, 0.5, -2.0, -2.0, 0.5, 0.5, -2.0, -2.0, -2.0, 0.5, 2416.0, 0.5, 0.5, 0.5, 0.5, 1711.5, -2.0, -2.0, 0.5, -2.0, -2.0, 1609.0, -2.0, -2.0, -2.0, -2.0, 0.5, -2.0, -2.0, -2.0], "value": [[0.34877384196185285, 0.3188010899182561, 0.33242506811989103], [0.25925925925925924, 0.17592592592592593, 0.5648148148148148], [0.09090909090909091, 0.8181818181818182, 0.09090909090909091], [0.27835051546391754, 0.10309278350515463, 0.6185567010309279], [0.21176470588235294, 0.11764705882352941, 0.6705882352941176], [0.20253164556962025, 0.0759493670886076, 0.7215189873417721], [0.0, 0.5, 0.5], [0.21333333333333335, 0.05333333333333334, 0.7333333333333333], [0.17391304347826086, 0.057971014492753624, 0.7681159420289855], [0.041666666666666664, 0.0, 0.9583333333333334], [0.09090909090909091, 0.0, 0.9090909090909091], [0.2, 0.0, 0.8], [0.0, 0.0, 1.0], [0.0, 0.0, 1.0], [0.24444444444444444, 0.08888888888888889, 0.6666666666666666], [0.3055555555555556, 0.0, 0.6944444444444444], [0.0, 0.0, 1.0], [0.39285714285714285, 0.0, 0.6071428571428571], [0.6363636363636364, 0.0, 0.36363636363636365], [0.23529411764705882, 0.0, 0.7647058823529411], [0.0, 0.4444444444444444, 0.5555555555555556], [0.6666666666666666, 0.0, 0.3333333333333333], [0.6, 0.0, 0.4], [0.0, 0.0, 1.0], [1.0, 0.0, 0.0], [1.0, 0.0, 0.0], [0.3333333333333333, 0.6666666666666666, 0.0], [0.75, 0.0, 0.25], [0.9, 0.0, 0.1], [0.75, 0.0, 0.25], [1.0, 0.0, 0.0], [0.0, 0.0, 1.0], [0.3861003861003861, 0.3783783783783784, 0.23552123552123552], [0.24848484848484848, 0.5757575757575758, 0.17575757575757575], [0.30578512396694213, 0.628099173553719, 0.06611570247933884], [0.3894736842105263, 0.5263157894736842, 0.08421052631578947], [0.3626373626373626, 0.5494505494505495, 0.08791208791208792], [0.03225806451612903, 0.8709677419354839, 0.0967741935483871], [0.045454545454545456, 0.8181818181818182, 0.13636363636363635], [0.0, 0.7857142857142857, 0.21428571428571427], [0.0, 0.6666666666666666, 0.3333333333333333], [0.0, 1.0, 0.0], [0.125, 0.875, 0.0], [0.0, 1.0, 0.0], [0.5333333333333333, 0.38333333333333336, 0.08333333333333333], [0.06666666666666667, 0.9333333333333333, 0.0], [0.0, 1.0, 0.0], [0.2, 0.8, 0.0], [0.6888888888888889, 0.2, 0.1111111111111111], [0.5757575757575758, 0.2727272727272727, 0.15151515151515152], [0.2222222222222222, 0.7777777777777778, 0.0], [0.7083333333333334, 0.08333333333333333, 0.20833333333333334], [0.0, 0.0, 1.0], [0.8095238095238095, 0.09523809523809523, 0.09523809523809523], [1.0, 0.0, 0.0], [1.0, 0.0, 0.0], [0.0, 1.0, 0.0], [0.09090909090909091, 0.4318181818181818, 0.4772727272727273], [0.1111111111111111, 0.3055555555555556, 0.5833333333333334], [0.4444444444444444, 0.2222222222222222, 0.3333333333333333], [0.2857142857142857, 0.2857142857142857, 0.42857142857142855], [0.0, 1.0, 0.0], [0.4, 0.0, 0.6], [1.0, 0.0, 0.0], [0.0, 0.3333333333333333, 0.6666666666666666], [0.0, 0.391304347826087, 0.6086956521739131], [0.0, 0.0, 1.0], [0.0, 0.42857142857142855, 0.5714285714285714], [0.0, 0.5, 0.5], [0.0, 0.6923076923076923, 0.3076923076923077], [0.0, 0.0, 1.0], [0.0, 0.0, 1.0], [0.0, 0.0, 1.0], [0.0, 1.0, 0.0], [0.6276595744680851, 0.031914893617021274, 0.3404255319148936], [0.25, 0.0, 0.75], [0.3, 0.0, 0.7], [0.0, 0.0, 1.0], [0.42857142857142855, 0.0, 0.5714285714285714], [0.2, 0.0, 0.8], [0.1111111111111111, 0.0, 0.8888888888888888], [0.16666666666666666, 0.0, 0.8333333333333334], [0.0, 0.0, 1.0], [1.0, 0.0, 0.0], [0.7297297297297297, 0.04054054054054054, 0.22972972972972974], [0.6666666666666666, 0.05, 0.2833333333333333], [0.76, 0.0, 0.24], [0.7446808510638298, 0.0, 0.2553191489361702], [0.7777777777777778, 0.0, 0.2222222222222222], [0.7142857142857143, 0.0, 0.2857142857142857], [0.45454545454545453, 0.0, 0.5454545454545454], [1.0, 0.0, 0.0], [0.25, 0.0, 0.75], [0.8823529411764706, 0.0, 0.11764705882352941], [0.875, 0.0, 0.125], [1.0, 0.0, 0.0], [0.8823529411764706, 0.0, 0.11764705882352941], [0.6, 0.0, 0.4], [1.0, 0.0, 0.0], [0.0, 0.0, 1.0], [1.0, 0.0, 0.0], [0.2, 0.3, 0.5], [0.1111111111111111, 0.3333333333333333, 0.5555555555555556], [1.0, 0.0, 0.0], [1.0, 0.0, 0.0]]}, {"children_left": [1, 2, -1, 4, 5, 6, -1, 8, -1, -1, 11, -1, -1, -1, 15, -1, 17, 18, 19, 20, 21, 22, 23, 24, -1, -1, 27, -1, -1, 30, -1, -1, -1, 34, 35, -1, 37, 38, -1, -1, -1, 42, 43, -1, 45, -1, -1, 48, 49, -1, -1, 52, -1, -1, 55, 56, -1, 58, 59, -1, 61, -1, -1, 64, 65, -1, -1, -1, -1, 70, 71, 72, 73, 74, -1, 76, -1, -1, -1, 80, -1, -1, -1, -1, 85, -1, 87, -1, 89, 90, -1, -1, 93, -1, 95, -1, -1], "children_right": [14, 3, -1, 13, 10, 7, -1, 9, -1, -1, 12, -1, -1, -1, 16, -1, 84, 69, 54, 33, 32, 29, 26, 25, -1, -1, 28, -1, -1, 31, -1, -1, -1, 41, 36, -1, 40, 39, -1, -1, -1, 47, 44, -1, 46, -1, -1, 51, 50, -1, -1, 53, -1, -1, 68, 57, -1, 63, 60, -1, 62, -1, -1, 67, 66, -1, -1, -1, -1, 83, 82, 79, 78, 75, -1, 77, -1, -1, -1, 81, -1, -1, -1, -1, 86, -1, 88, -1, 92, 91, -1, -1, 94, -1, 96, -1, -1], "feature": [18, 11, -2, 1, 19, 4, -2, 0, -2, -2, 4, -2, -2, -2, 11, -2, 2, 7, 10, 3, 21, 22, 0, 6, -2, -2, 1, -2, -2, 0, -2, -2, -2, 22, 19, -2, 24, 15, -2, -2, -2, 14, 17, -2, 15, -2, -2, 13, 15, -2, -2, 1, -2, -2, 1, 8, -2, 17, 0, -2, 15, -2, -2, 21, 0, -2, -2, -2, -2, 21, 1, 8, 17, 24, -2, 3, -2, -2, -2, 0, -2, -2, -2, -2, 24, -2, 4, -2, 0, 14, -2, -2, 21, -2, 5, -2, -2], "threshold": [0.5, 0.5, -2.0, 0.5, 0.5, 0.5, -2.0, 904.5, -2.0, -2.0, 0.5, -2.0, -2.0, -2.0, 0.5, -2.0, 0.5, 0.5, 0.5, 0.5, 0.5, 0.5, 1565.0, 0.5, -2.0, -2.0, 0.5, -2.0, -2.0, 1469.0, -2.0, -2.0, -2.0, 0.5, 0.5, -2.0, 2.5, 0.5, -2.0, -2.0, -2.0, 0.5, 0.5, -2.0, 0.5, -2.0, -2.0, 0.5, 0.5, -2.0, -2.0, 0.5, -2.0, -2.0, 0.5, 0.5, -2.0, 0.5, 1320.5, -2.0, 0.5, -2.0, -2.0, 0.5, 1286.5, -2.0, -2.0, -2.0, -2.0, 0.5, 0.5, 0.5, 0.5, 2.5, -2.0, 0.5, -2.0, -2.0, -2.0, 1675.0, -2.0, -2.0, -2.0, -2.0, 1.5, -2.0, 0.5, -2.0, 1581.0, 0.5, -2.0, -2.0, 0.5, -2.0, 0.5, -2.0, -2.0], "value": [[0.3460490463215259, 0.32697547683923706, 0.32697547683923706], [0.012195121951219513, 0.9146341463414634, 0.07317073170731707], [0.0, 1.0, 0.0], [0.01639344262295082, 0.8852459016393442, 0.09836065573770492], [0.0, 0.8888888888888888, 0.1111111111111111], [0.0, 0.8235294117647058, 0.17647058823529413], [0.0, 1.0, 0.0], [0.0, 0.75, 0.25], [0.0, 1.0, 0.0], [0.0, 0.5, 0.5], [0.0, 0.918918918918919, 0.08108108108108109], [0.0, 0.5, 0.5], [0.0, 1.0, 0.0], [0.14285714285714285, 0.8571428571428571, 0.0], [0.4421052631578947, 0.15789473684210525, 0.4], [0.0, 0.8888888888888888, 0.1111111111111111], [0.45652173913043476, 0.13405797101449277, 0.40942028985507245], [0.4190871369294606, 0.14937759336099585, 0.4315352697095436], [0.3627450980392157, 0.17647058823529413, 0.46078431372549017], [0.2958579881656805, 0.1893491124260355, 0.514792899408284], [0.18181818181818182, 0.01818181818181818, 0.8], [0.11764705882352941, 0.0196078431372549, 0.8627450980392157], [0.15, 0.0, 0.85], [0.1, 0.0, 0.9], [0.06896551724137931, 0.0, 0.9310344827586207], [1.0, 0.0, 0.0], [0.3, 0.0, 0.7], [0.375, 0.0, 0.625], [0.0, 0.0, 1.0], [0.0, 0.09090909090909091, 0.9090909090909091], [0.0, 0.0, 1.0], [0.0, 1.0, 0.0], [1.0, 0.0, 0.0], [0.3508771929824561, 0.2719298245614035, 0.37719298245614036], [0.46511627906976744, 0.3953488372093023, 0.13953488372093023], [1.0, 0.0, 0.0], [0.4523809523809524, 0.40476190476190477, 0.14285714285714285], [0.41025641025641024, 0.4358974358974359, 0.15384615384615385], [0.30303030303030304, 0.5151515151515151, 0.18181818181818182], [1.0, 0.0, 0.0], [1.0, 0.0, 0.0], [0.28169014084507044, 0.19718309859154928, 0.5211267605633803], [0.06666666666666667, 0.3111111111111111, 0.6222222222222222], [0.0, 0.0, 1.0], [0.07142857142857142, 0.3333333333333333, 0.5952380952380952], [0.025, 0.35, 0.625], [1.0, 0.0, 0.0], [0.6538461538461539, 0.0, 0.34615384615384615], [0.5625, 0.0, 0.4375], [0.5333333333333333, 0.0, 0.4666666666666667], [1.0, 0.0, 0.0], [0.8, 0.0, 0.2], [0.6666666666666666, 0.0, 0.3333333333333333], [1.0, 0.0, 0.0], [0.6857142857142857, 0.11428571428571428, 0.2], [0.65625, 0.125, 0.21875], [0.0, 0.0, 1.0], [0.6774193548387096, 0.12903225806451613, 0.1935483870967742], [0.4, 0.0, 0.6], [1.0, 0.0, 0.0], [0.25, 0.0, 0.75], [0.4, 0.0, 0.6], [0.0, 0.0, 1.0], [0.8095238095238095, 0.19047619047619047, 0.0], [0.6363636363636364, 0.36363636363636365, 0.0], [0.0, 1.0, 0.0], [1.0, 0.0, 0.0], [1.0, 0.0, 0.0], [1.0, 0.0, 0.0], [0.7297297297297297, 0.0, 0.2702702702702703], [0.7714285714285715, 0.0, 0.22857142857142856], [0.7037037037037037, 0.0, 0.2962962962962963], [0.6666666666666666, 0.0, 0.3333333333333333], [0.8235294117647058, 0.0, 0.17647058823529413], [1.0, 0.0, 0.0], [0.625, 0.0, 0.375], [0.4, 0.0, 0.6], [1.0, 0.0, 0.0], [0.0, 0.0, 1.0], [0.8333333333333334, 0.0, 0.16666666666666666], [0.6666666666666666, 0.0, 0.3333333333333333], [1.0, 0.0, 0.0], [1.0, 0.0, 0.0], [0.0, 0.0, 1.0], [0.7142857142857143, 0.02857142857142857, 0.2571428571428571], [1.0, 0.0, 0.0], [0.6875, 0.03125, 0.28125], [0.2857142857142857, 0.0, 0.7142857142857143], [0.8, 0.04, 0.16], [0.3333333333333333, 0.16666666666666666, 0.5], [0.2, 0.2, 0.6], [1.0, 0.0, 0.0], [0.9473684210526315, 0.0, 0.05263157894736842], [1.0, 0.0, 0.0], [0.9166666666666666, 0.0, 0.08333333333333333], [0.6666666666666666, 0.0, 0.3333333333333333], [1.0, 0.0, 0.0]]}, {"children_left": [1, 2, -1, -1, 5, 6, 7, 8, -1, -1, 11, 12, 13, 14, -1, 16, -1, -1, 19, 20, -1, -1, -1, 24, -1, -1, -1, -1, 29, 30, 31, 32, -1, -1, 35, 36, -1, 38, -1, -1, 41, 42, 43, -1, -1, -1, 47, 48, 49, -1, -1, -1, 53, -1, -1, 56, 57, 58, -1, -1, 61, 62, -1, 64, -1, 66, -1, -1, 69, 70, -1, 72, -1, -1, -1, 76, 77, 78, -1, 80, -1, -1, -1, 84, -1, -1, 87, -1, 89, -1, 91, -1, 93, -1, -1], "children_right": [4, 3, -1, -1, 28, 27, 10, 9, -1, -1, 26, 23, 18, 15, -1, 17, -1, -1, 22, 21, -1, -1, -1, 25, -1, -1, -1, -1, 86, 55, 34, 33, -1, -1, 40, 37, -1, 39, -1, -1, 46, 45, 44, -1, -1, -1, 52, 51, 50, -1, -1, -1, 54, -1, -1, 75, 60, 59, -1, -1, 68, 63, -1, 65, -1, 67, -1, -1, 74, 71, -1, 73, -1, -1, -1, 83, 82, 79, -1, 81, -1, -1, -1, 85, -1, -1, 88, -1, 90, -1, 92, -1, 94, -1, -1], "feature": [11, 18, -2, -2, 0, 7, 3, 0, -2, -2, 17, 24, 19, 0, -2, 0, -2, -2, 1, 0, -2, -2, -2, 0, -2, -2, -2, -2, 8, 20, 0, 4, -2, -2, 18, 0, -2, 15, -2, -2, 3, 0, 12, -2, -2, -2, 1, 12, 0, -2, -2, -2, 0, -2, -2, 7, 0, 14, -2, -2, 22, 0, -2, 24, -2, 6, -2, -2, 13, 0, -2, 3, -2, -2, -2, 17, 15, 3, -2, 0, -2, -2, -2, 1, -2, -2, 16, -2, 6, -2, 15, -2, 5, -2, -2], "threshold": [0.5, 0.5, -2.0, -2.0, 1208.0, 0.5, 0.5, 1091.0, -2.0, -2.0, 0.5, 1.5, 0.5, 877.0, -2.0, 975.0, -2.0, -2.0, 0.5, 1163.5, -2.0, -2.0, -2.0, 1155.0, -2.0, -2.0, -2.0, -2.0, 0.5, 0.5, 1302.0, 0.5, -2.0, -2.0, 0.5, 1424.0, -2.0, 0.5, -2.0, -2.0, 0.5, 1944.5, 0.5, -2.0, -2.0, -2.0, 0.5, 0.5, 1530.5, -2.0, -2.0, -2.0, 1879.0, -2.0, -2.0, 0.5, 1494.0, 0.5, -2.0, -2.0, 0.5, 1565.0, -2.0, 2.5, -2.0, 0.5, -2.0, -2.0, 0.5, 1563.5, -2.0, 0.5, -2.0, -2.0, -2.0, 0.5, 0.5, 0.5, -2.0, 1757.5, -2.0, -2.0, -2.0, 0.5, -2.0, -2.0, 0.5, -2.0, 0.5, -2.0, 0.5, -2.0, 0.5, -2.0, -2.0], "value": [[0.29427792915531337, 0.34877384196185285, 0.3569482288828338], [0.07142857142857142, 0.8571428571428571, 0.07142857142857142], [0.0, 1.0, 0.0], [0.3333333333333333, 0.3333333333333333, 0.3333333333333333], [0.31268436578171094, 0.30678466076696165, 0.3805309734513274], [0.10256410256410256, 0.7051282051282052, 0.19230769230769232], [0.09090909090909091, 0.7142857142857143, 0.19480519480519481], [0.5, 0.0, 0.5], [0.375, 0.0, 0.625], [1.0, 0.0, 0.0], [0.029850746268656716, 0.8208955223880597, 0.14925373134328357], [0.03225806451612903, 0.8387096774193549, 0.12903225806451613], [0.023255813953488372, 0.7906976744186046, 0.18604651162790697], [0.0, 0.6, 0.4], [0.0, 0.8, 0.2], [0.0, 0.5333333333333333, 0.4666666666666667], [0.0, 0.5, 0.5], [0.0, 1.0, 0.0], [0.043478260869565216, 0.9565217391304348, 0.0], [0.05263157894736842, 0.9473684210526315, 0.0], [0.14285714285714285, 0.8571428571428571, 0.0], [0.0, 1.0, 0.0], [0.0, 1.0, 0.0], [0.05263157894736842, 0.9473684210526315, 0.0], [0.0, 1.0, 0.0], [1.0, 0.0, 0.0], [0.0, 0.6, 0.4], [1.0, 0.0, 0.0], [0.37547892720306514, 0.18773946360153257, 0.4367816091954023], 